<?xml version="1.0"?>
<MethodSetup Method="DNN::DNN">
  <GeneralInfo>
    <Info name="TMVA Release" value="4.2.1 [262657]"/>
    <Info name="ROOT Release" value="6.24/02 [399362]"/>
    <Info name="Creator" value="matteo"/>
    <Info name="Date" value="Tue Feb 22 15:03:53 2022"/>
    <Info name="Host" value="Linux root-ubuntu-2004-1 5.4.0-73-generic #82-Ubuntu SMP Wed Apr 14 17:39:42 UTC 2021 x86_64 x86_64 x86_64 GNU/Linux"/>
    <Info name="Dir" value="/mnt/c/Users/Matteo/OneDrive - University of Pisa/Desktop/Università/CORSI/IV ANNO/Computing methods/HiggsToFourLeptons-8tev/ml"/>
    <Info name="Training events" value="70000"/>
    <Info name="TrainingTime" value="3.85189130e+01"/>
    <Info name="AnalysisType" value="Classification"/>
  </GeneralInfo>
  <Options>
    <Option name="V" modified="Yes">False</Option>
    <Option name="VerbosityLevel" modified="No">Default</Option>
    <Option name="VarTransform" modified="Yes">N</Option>
    <Option name="H" modified="Yes">False</Option>
    <Option name="CreateMVAPdfs" modified="No">False</Option>
    <Option name="IgnoreNegWeightsInTraining" modified="No">False</Option>
    <Option name="Layout" modified="Yes">TANH|128,TANH|128,TANH|128,LINEAR</Option>
    <Option name="ValidationSize" modified="No">20%</Option>
    <Option name="ErrorStrategy" modified="Yes">CROSSENTROPY</Option>
    <Option name="WeightInitialization" modified="Yes">XAVIERUNIFORM</Option>
    <Option name="Architecture" modified="Yes">CPU</Option>
    <Option name="TrainingStrategy" modified="Yes">LearningRate=1e-1,Momentum=0.9,Repetitions=10,ConvergenceSteps=2,BatchSize=256,TestRepetitions=10,WeightDecay=1e-4,Regularization=L2,DropConfig=0.0+0.5+0.5+0.5,</Option>
  </Options>
  <Variables NVar="5">
    <Variable VarIndex="0" Expression="theta_star" Label="theta_star" Title="theta_star" Unit="" Internal="theta_star" Type="F" Min="6.91451505e-03" Max="3.13813114e+00"/>
    <Variable VarIndex="1" Expression="Phi" Label="Phi" Title="Phi" Unit="" Internal="Phi" Type="F" Min="-3.14151907e+00" Max="3.14157844e+00"/>
    <Variable VarIndex="2" Expression="Phi1" Label="Phi1" Title="Phi1" Unit="" Internal="Phi1" Type="F" Min="-3.14146090e+00" Max="3.14147568e+00"/>
    <Variable VarIndex="3" Expression="theta1" Label="theta1" Title="theta1" Unit="" Internal="theta1" Type="F" Min="1.20898820e-02" Max="3.12986636e+00"/>
    <Variable VarIndex="4" Expression="theta2" Label="theta2" Title="theta2" Unit="" Internal="theta2" Type="F" Min="6.72559300e-03" Max="3.12829900e+00"/>
  </Variables>
  <Spectators NSpec="0"/>
  <Classes NClass="2">
    <Class Name="Signal" Index="0"/>
    <Class Name="Background" Index="1"/>
  </Classes>
  <Transformations NTransformations="1">
    <Transform Name="Normalize">
      <Selection>
        <Input NInputs="5">
          <Input Type="Variable" Label="theta_star" Expression="theta_star"/>
          <Input Type="Variable" Label="Phi" Expression="Phi"/>
          <Input Type="Variable" Label="Phi1" Expression="Phi1"/>
          <Input Type="Variable" Label="theta1" Expression="theta1"/>
          <Input Type="Variable" Label="theta2" Expression="theta2"/>
        </Input>
        <Output NOutputs="5">
          <Output Type="Variable" Label="theta_star" Expression="theta_star"/>
          <Output Type="Variable" Label="Phi" Expression="Phi"/>
          <Output Type="Variable" Label="Phi1" Expression="Phi1"/>
          <Output Type="Variable" Label="theta1" Expression="theta1"/>
          <Output Type="Variable" Label="theta2" Expression="theta2"/>
        </Output>
      </Selection>
      <Class ClassIndex="0">
        <Ranges>
          <Range Index="0" Min="6.9145150482654572e-03" Max="3.1381311416625977e+00"/>
          <Range Index="1" Min="-3.1413440704345703e+00" Max="3.1415784358978271e+00"/>
          <Range Index="2" Min="-3.1414608955383301e+00" Max="3.1414372920989990e+00"/>
          <Range Index="3" Min="1.6343187540769577e-02" Max="3.1298663616180420e+00"/>
          <Range Index="4" Min="6.7255930043756962e-03" Max="3.1282989978790283e+00"/>
        </Ranges>
      </Class>
      <Class ClassIndex="1">
        <Ranges>
          <Range Index="0" Min="9.8735261708498001e-03" Max="3.1381311416625977e+00"/>
          <Range Index="1" Min="-3.1415190696716309e+00" Max="3.1415784358978271e+00"/>
          <Range Index="2" Min="-3.1414608955383301e+00" Max="3.1414756774902344e+00"/>
          <Range Index="3" Min="1.2089882045984268e-02" Max="3.1298663616180420e+00"/>
          <Range Index="4" Min="6.7255930043756962e-03" Max="3.1280262470245361e+00"/>
        </Ranges>
      </Class>
      <Class ClassIndex="2">
        <Ranges>
          <Range Index="0" Min="6.9145150482654572e-03" Max="3.1381311416625977e+00"/>
          <Range Index="1" Min="-3.1415190696716309e+00" Max="3.1415784358978271e+00"/>
          <Range Index="2" Min="-3.1414608955383301e+00" Max="3.1414756774902344e+00"/>
          <Range Index="3" Min="1.2089882045984268e-02" Max="3.1298663616180420e+00"/>
          <Range Index="4" Min="6.7255930043756962e-03" Max="3.1282989978790283e+00"/>
        </Ranges>
      </Class>
    </Transform>
  </Transformations>
  <MVAPdfs/>
  <Weights InputWidth="5" Depth="4" LossFunction="C" OutputFunction="S">
    <Layer ActivationFunction="3">
      <Weights rows="128" cols="5">
        -1.6773247718811035e-01 2.1069927141070366e-02 -1.0320904664695263e-02 1.3455657660961151e-01 6.0424994677305222e-02 1.1994823813438416e-01 1.1972337216138840e-01 -5.7014010846614838e-02 1.3377609848976135e-01 -2.4135093390941620e-01 -1.8249167501926422e-01 -2.0766913890838623e-01 1.8837925791740417e-01 1.5727002918720245e-01 -1.8955950438976288e-01 -1.3564324378967285e-01 -1.8906450271606445e-01 -1.2025962024927139e-01 1.9368360936641693e-01 -1.3630609214305878e-01 -1.2646247632801533e-03 2.5231409072875977e-01 5.5952019989490509e-02 6.2490131705999374e-02 -3.6388229578733444e-02 -1.9759453833103180e-01 7.6575517654418945e-02 -3.4567788243293762e-02 -1.6308653354644775e-01 -2.1036265790462494e-01 5.4259650409221649e-02 1.5255320072174072e-01 2.4179370701313019e-01 -2.1454349160194397e-01 1.9542612135410309e-01 1.4423236250877380e-01 -1.3254936784505844e-02 -8.5402764379978180e-02 2.5432655215263367e-01 -7.2926469147205353e-02 5.5532399564981461e-02 8.4437146782875061e-02 -1.6279803216457367e-01 -2.0306351780891418e-01 1.6488343477249146e-01 5.1812693476676941e-02 1.8220883607864380e-01 7.6881445944309235e-02 -4.6599086374044418e-02 -2.1069070696830750e-01 1.2641528248786926e-01 8.5641704499721527e-02 -1.8323811888694763e-01 -8.7651662528514862e-02 8.6431913077831268e-02 8.4948003292083740e-02 1.8644346296787262e-01 -2.0218729972839355e-01 -7.2441936936229467e-04 7.5115934014320374e-02 2.0176926255226135e-01 -1.8529501557350159e-01 2.3035489022731781e-02 -1.9023562967777252e-01 2.3298379778862000e-01 1.5358738601207733e-01 1.0525406152009964e-01 -7.5208656489849091e-02 -2.6102261617779732e-03 2.5474527478218079e-01 -2.1839991211891174e-01 2.4760553240776062e-01 5.4931137710809708e-02 1.6993264853954315e-01 -2.6009643077850342e-01 3.0563902109861374e-02 1.7123025655746460e-01 -1.0733634978532791e-01 -1.8001718819141388e-01 1.9119724631309509e-02 -2.1795454621315002e-01 2.0446203649044037e-01 -2.2696383297443390e-01 -8.9714534580707550e-02 -4.9828939139842987e-02 -2.6422065496444702e-01 1.2575711309909821e-01 2.4080244824290276e-02 2.5132670998573303e-01 -2.0588295161724091e-01 1.0866788774728775e-01 -1.7858891189098358e-01 1.2768995761871338e-01 -2.5049362331628799e-02 8.7487600743770599e-02 -1.6107660531997681e-01 1.6220542788505554e-01 1.1356759816408157e-02 4.1359543800354004e-02 -4.9521658569574356e-02 -5.7756673544645309e-02 -1.7217738926410675e-01 1.8925453722476959e-01 -1.9161039590835571e-01 -2.1975865960121155e-01 -1.1856019496917725e-02 -2.5761213898658752e-01 -1.2747783213853836e-02 -2.4806007742881775e-01 -1.4084734022617340e-01 -3.3597413450479507e-02 -1.9177952408790588e-01 -8.5749141871929169e-02 -5.2683942019939423e-02 7.1882205083966255e-03 -5.9943199157714844e-03 2.3091474175453186e-01 -2.2199505567550659e-01 1.0525412857532501e-01 4.2285833507776260e-02 2.2662632167339325e-01 1.9298680126667023e-01 -2.6489496231079102e-02 -4.8234332352876663e-03 -2.4093899875879288e-02 4.1804082691669464e-02 -1.4514468610286713e-01 -1.5780845656991005e-02 1.0138630121946335e-01 -1.0727424174547195e-01 6.9157227873802185e-02 1.7089594621211290e-04 -1.0163025557994843e-01 9.1438561677932739e-02 6.3253767788410187e-02 -1.8672762811183929e-01 -3.3881351351737976e-02 2.1269460022449493e-01 4.2773026973009109e-02 -8.4576331079006195e-02 -6.0648027807474136e-02 -1.2007467448711395e-01 4.0814720094203949e-02 1.9852380454540253e-01 -5.1180571317672729e-02 -2.0345054566860199e-01 -2.7364952489733696e-02 1.7480707168579102e-01 2.1401630342006683e-01 2.3096486926078796e-02 8.7731547653675079e-02 1.4104419946670532e-01 -2.8812754899263382e-02 1.5844090282917023e-01 -1.7397535964846611e-02 1.7299409210681915e-01 -1.8249182403087616e-01 -2.0347949862480164e-01 1.2393391877412796e-01 -2.4426835775375366e-01 7.0578917860984802e-02 -1.8929496407508850e-01 -9.3367353081703186e-02 2.5522351264953613e-01 1.6719865798950195e-01 3.2783642411231995e-02 -2.4021711945533752e-01 -1.9537189602851868e-01 2.4057473242282867e-01 -7.6887220144271851e-02 2.3800419270992279e-01 -1.7348080873489380e-01 -2.1063366532325745e-01 -1.9401438534259796e-01 2.3439839482307434e-01 2.4278345704078674e-01 1.5049941837787628e-01 1.3817064464092255e-01 1.1694498360157013e-01 -4.1061639785766602e-02 -9.5533795654773712e-02 -1.7991006374359131e-01 -8.9741595089435577e-02 1.5052866935729980e-01 2.0927046239376068e-01 -1.2442502193152905e-02 -1.4158655703067780e-01 -3.5971876233816147e-02 -1.9266253337264061e-02 -5.5975016206502914e-02 2.8459244276746176e-05 7.4412487447261810e-04 1.8908616155385971e-02 1.8153452873229980e-01 8.5229098796844482e-02 -1.1399423703551292e-02 9.3257114291191101e-02 -2.0492216944694519e-01 2.1245047450065613e-01 6.5622955560684204e-02 -9.9969439208507538e-02 1.9016109406948090e-01 -1.2399421632289886e-01 -1.8393668532371521e-01 -2.1534778177738190e-02 -1.0216799564659595e-03 1.3980641961097717e-01 1.2778967618942261e-02 -3.8644015789031982e-02 -8.6467035114765167e-02 1.9716657698154449e-02 -2.7057228609919548e-02 -1.7780548334121704e-01 -2.1160194277763367e-01 1.0052071511745453e-01 -2.1480302512645721e-01 -1.2176118046045303e-01 2.1087932586669922e-01 5.4161109030246735e-02 -1.4045065641403198e-01 -1.6389283537864685e-01 2.1963685750961304e-02 1.0934487730264664e-01 -1.0560340434312820e-01 -2.3732544481754303e-01 5.5376468226313591e-03 8.0561004579067230e-02 -4.4739928096532822e-02 1.4073841273784637e-01 -2.5188364088535309e-02 4.7789871692657471e-02 3.7189271301031113e-02 7.8595235943794250e-02 -7.9070083796977997e-02 1.3894961774349213e-01 -1.0348755866289139e-02 4.0736630558967590e-02 -5.9894651174545288e-02 1.6535723209381104e-01 -1.7614366114139557e-01 2.1973054111003876e-01 8.2796640694141388e-02 -2.0615153014659882e-01 -8.6468495428562164e-02 -1.0582707077264786e-01 3.8937723729759455e-03 -2.2185103595256805e-01 -6.2092170119285583e-03 9.8575130105018616e-03 2.0170043408870697e-01 2.3519696295261383e-01 -2.3544116318225861e-01 1.8177299201488495e-01 9.5263002440333366e-03 -1.0899246484041214e-01 -8.9342584833502769e-03 4.6078223735094070e-02 1.4070647954940796e-01 -8.3306036889553070e-02 2.4581649899482727e-01 -1.9479976035654545e-03 1.0056125372648239e-01 6.8329960107803345e-02 1.9165572524070740e-01 -5.3230617195367813e-02 2.0280748605728149e-01 -2.4340461194515228e-01 -2.2305356338620186e-02 1.4770457148551941e-01 -2.0600615069270134e-02 -1.2287985533475876e-02 -4.2929101735353470e-02 -2.4617241695523262e-02 -1.4251041412353516e-01 1.0576421767473221e-01 -1.5024957060813904e-01 -6.9173596799373627e-02 -1.4046636223793030e-01 1.3134430348873138e-01 -1.5351715683937073e-01 1.0258557647466660e-01 -1.1178896576166153e-01 -1.8820101395249367e-02 -2.4933402240276337e-01 -1.1706330813467503e-02 2.1785111725330353e-01 -2.4433779716491699e-01 9.8866015672683716e-02 1.6128145158290863e-01 1.0755027830600739e-01 1.7018827795982361e-01 1.0003168880939484e-01 1.1488597840070724e-01 1.9122645258903503e-01 -8.3660081028938293e-02 2.2873429954051971e-01 -2.0163783431053162e-01 -5.7379528880119324e-02 1.4444461464881897e-01 1.6518464684486389e-01 8.1613078713417053e-02 -1.9426090642809868e-02 -2.5257959961891174e-01 1.9834442436695099e-01 1.4609536528587341e-01 -6.7939274013042450e-02 9.8011463880538940e-02 -6.1729289591312408e-02 -2.3486888408660889e-01 -4.3694521300494671e-03 1.3956040143966675e-01 -2.2112044692039490e-01 2.2619600594043732e-01 -8.6854845285415649e-02 3.3192541450262070e-02 -8.4941796958446503e-02 7.7433004975318909e-02 4.6344935894012451e-02 -2.7994414791464806e-02 -3.8086068816483021e-03 2.2729666531085968e-01 2.4075059592723846e-01 1.9596087932586670e-01 2.0854301750659943e-01 6.0272205621004105e-02 -2.3026560246944427e-01 1.1289995908737183e-01 -8.8628061115741730e-02 -8.9950878173112869e-03 -1.2351159751415253e-01 8.5640497505664825e-02 -1.9209466874599457e-01 -2.5333806872367859e-01 -1.1902486532926559e-01 -8.3656096830964088e-03 1.2980067729949951e-01 1.4560985565185547e-01 -1.1363758705556393e-02 1.5230625867843628e-01 1.1088750511407852e-01 -1.0428495705127716e-01 2.4968205392360687e-01 2.2700305283069611e-01 1.6591085493564606e-01 1.1902377009391785e-01 -1.7428125441074371e-01 1.4339035749435425e-01 2.6284509897232056e-01 2.4695070087909698e-01 2.0506127178668976e-01 -9.3883417546749115e-02 -6.8163871765136719e-02 -1.5783433616161346e-01 2.0365492999553680e-01 1.5797843039035797e-01 -1.3807819783687592e-01 1.3260307908058167e-01 -1.3665546476840973e-01 -5.3119249641895294e-02 -2.4910719692707062e-01 4.1914038360118866e-02 1.3152151368558407e-02 2.6395648717880249e-02 2.0526334643363953e-01 -1.0478097200393677e-01 1.0669349133968353e-01 -5.0316564738750458e-02 1.4886203408241272e-01 -1.1216780543327332e-01 1.8379656970500946e-01 1.7001371085643768e-01 -1.5928252041339874e-01 1.8236583471298218e-01 2.2099880874156952e-01 -1.6871580481529236e-01 1.2289820611476898e-01 -2.3316712677478790e-01 -9.0463019907474518e-02 1.7718581855297089e-01 -2.3903717100620270e-01 -2.6307957246899605e-02 2.1610163152217865e-01 -6.2328230589628220e-02 2.5161701440811157e-01 -6.6085003316402435e-02 5.9783570468425751e-02 1.2427178770303726e-01 -1.9564259797334671e-02 2.4186216294765472e-01 -1.7534276843070984e-01 -1.7362934350967407e-01 -4.0598671883344650e-02 1.4547044038772583e-01 -1.8263831734657288e-01 -1.8724615871906281e-01 1.3780873268842697e-02 -1.7732632160186768e-01 8.2061327993869781e-03 3.4621972590684891e-02 1.5856912732124329e-01 -2.2836832702159882e-01 -1.0003733634948730e-01 2.1037161350250244e-01 6.1623612418770790e-04 1.7631912603974342e-02 -4.5434534549713135e-02 1.8766987323760986e-01 -2.7933243662118912e-02 -1.6332190483808517e-02 -1.6210776567459106e-01 -1.3617229461669922e-01 3.2378339674323797e-03 -1.1760614067316055e-01 -5.8991007506847382e-02 -1.4182935655117035e-01 9.1585904359817505e-02 1.3460671901702881e-01 -8.0799981951713562e-02 -2.1882463991641998e-01 1.2598489224910736e-01 6.4037241041660309e-02 -7.3203802108764648e-02 -5.4747622460126877e-02 -2.2346396744251251e-01 1.0457682609558105e-01 -2.1338362991809845e-01 -1.0534390807151794e-01 1.9719965755939484e-01 -1.2717956304550171e-01 -2.3276464641094208e-01 1.5611036121845245e-01 1.8068790435791016e-01 -2.3657198250293732e-01 1.1543244868516922e-01 -1.0657876729965210e-01 2.4845245480537415e-01 9.9628597497940063e-02 1.2078601121902466e-01 -1.7749799787998199e-01 1.3258148729801178e-01 8.8373444974422455e-02 -1.8222150206565857e-01 -1.2784445285797119e-01 2.0327633619308472e-01 -2.6452347636222839e-01 -2.3317344486713409e-01 1.1086089909076691e-01 -1.6317270696163177e-02 -1.0995879769325256e-01 -2.1883325278759003e-01 1.6075952351093292e-01 3.2533049583435059e-02 -1.0762442648410797e-01 8.2289017736911774e-02 2.2390566766262054e-01 -1.9660508260130882e-02 3.3484734594821930e-02 1.0489970445632935e-01 -2.4482971429824829e-01 -1.3311116397380829e-01 1.7863486707210541e-01 -1.1307952553033829e-01 -2.4306991696357727e-01 -2.5507387518882751e-01 1.1892475187778473e-01 1.5261819958686829e-01 -3.2716222107410431e-02 -4.0956893935799599e-03 -7.8835383057594299e-02 2.1878653764724731e-01 -1.5132977068424225e-01 -9.5050767064094543e-02 1.9024045765399933e-01 9.5601975917816162e-02 -1.2822815775871277e-01 -1.7284446954727173e-01 -1.3778576254844666e-01 -1.9495494663715363e-01 2.2538672387599945e-01 9.1117188334465027e-02 -1.3689833879470825e-01 3.9899744093418121e-02 -1.2709578871726990e-01 -2.5747185945510864e-01 2.3040269315242767e-01 -2.5521799921989441e-01 1.2788218259811401e-01 2.3549345135688782e-01 9.1169863939285278e-02 2.3471212014555931e-02 1.6976904124021530e-02 1.5344147384166718e-01 1.9421374797821045e-01 -2.2266149520874023e-01 -2.1529382467269897e-01 -1.8143698573112488e-01 9.3644835054874420e-02 2.6492988690733910e-02 -1.7359873652458191e-01 -1.1591707170009613e-01 -2.2696362435817719e-01 2.6503710076212883e-02 8.5386484861373901e-02 8.0213211476802826e-02 -1.2610937654972076e-01 -1.9110971689224243e-01 -1.9538913667201996e-01 -2.3223842680454254e-01 1.4253523945808411e-01 9.6478879451751709e-02 -1.1863399296998978e-02 2.3925922811031342e-01 1.7126508057117462e-01 -3.2610185444355011e-02 2.6366993784904480e-01 3.3653479069471359e-02 7.5980782508850098e-02 1.4612351357936859e-01 7.2194553911685944e-02 -2.2526347637176514e-01 -2.0924480259418488e-01 -1.2882345914840698e-01 1.3994424045085907e-01 -1.0157202929258347e-01 -1.4113199710845947e-01 1.2743467092514038e-01 6.1163026839494705e-02 1.1309237778186798e-01 -1.4282025396823883e-02 -1.1395270377397537e-01 -5.9775009751319885e-02 -8.7608240544795990e-02 -1.0773202776908875e-01 2.4716749787330627e-01 6.1188828200101852e-02 1.7396390438079834e-01 -3.9740756154060364e-02 1.9635027647018433e-01 1.6586819291114807e-01 -2.1727049350738525e-01 2.1094818413257599e-01 2.1749989688396454e-01 -2.2076611220836639e-01 1.5786264836788177e-01 -1.5819382667541504e-01 -2.4917438626289368e-02 -5.7179480791091919e-03 1.4055785536766052e-01 1.0698856413364410e-01 1.7816844582557678e-01 -1.9067694246768951e-01 -9.8328731954097748e-02 -9.6439663320779800e-03 -2.5183036923408508e-01 7.1434855461120605e-02 -2.4368292093276978e-01 2.1834146231412888e-02 -1.3137383759021759e-01 -9.7468242049217224e-02 -2.4924261868000031e-01 -2.2920243442058563e-01 -2.1398532390594482e-01 -2.1413673460483551e-01 -1.4835211634635925e-01 2.1108774840831757e-01 -2.4978828430175781e-01 -2.0923350751399994e-01 -2.2011962532997131e-01 2.0409484207630157e-01 5.0845898687839508e-02 6.5900692716240883e-03 2.8454743325710297e-02 -4.1157919913530350e-02 -2.4261924624443054e-01 4.6903043985366821e-03 -1.0903833061456680e-01 2.4235872924327850e-01 2.4787288904190063e-01 -1.4660488069057465e-01 2.4507331848144531e-01 6.6006775014102459e-03 7.5951069593429565e-02 -1.2581129372119904e-01 2.1198368072509766e-01 -1.5561752021312714e-01 -5.8315619826316833e-02 1.8944834172725677e-01 -6.6405527293682098e-02 8.7057113647460938e-02 -1.9848786294460297e-01 1.1683813482522964e-01 1.4624349772930145e-01 -1.7196682095527649e-01 -1.0116419196128845e-01 1.5090773999691010e-01 -3.1292472034692764e-02 -3.7265006452798843e-02 2.4445785582065582e-01 -2.4573405086994171e-01 2.0230478048324585e-01 6.8083375692367554e-02 -1.5700438618659973e-01 -1.7981804907321930e-01 2.4548828601837158e-01 2.6938952505588531e-02 1.4609010517597198e-01 -1.6631454229354858e-01 -2.0470878109335899e-02 5.0038013607263565e-02 -1.8417724967002869e-01 1.7012830078601837e-01 1.7786176502704620e-01 -8.5472553968429565e-02 1.2461448460817337e-01 2.5792866945266724e-02 -1.6345900297164917e-01 3.1429402530193329e-02 1.9227014482021332e-01 -1.3191896677017212e-01 1.9083321094512939e-01 -8.7051488459110260e-02 2.1146252751350403e-02 1.0341157019138336e-01 5.6086767464876175e-02 -4.3591517955064774e-02 1.8657873570919037e-01 -1.7249003052711487e-01 -2.4885155260562897e-01 2.4948392808437347e-01 2.2113820910453796e-01 5.5887956172227859e-02 -1.9630159437656403e-01 -2.1189759671688080e-01 -8.9172273874282837e-02 2.3081834614276886e-01 2.3293554782867432e-02 -3.9130847901105881e-02 6.7893356084823608e-02 3.6209654062986374e-02 -1.5849484503269196e-01 
      </Weights>
      <Biases rows="128" cols="1">
        7.1680722758173943e-03 1.6640617977827787e-03 7.7004102058708668e-03 7.2115478105843067e-03 -1.4621266163885593e-03 4.8636677674949169e-03 -6.1032092198729515e-03 1.0343028407078236e-04 -9.9077410995960236e-03 1.3794995611533523e-03 7.9294424504041672e-03 -7.1432171389460564e-03 1.8738424405455589e-03 -1.0657815262675285e-02 1.0869396850466728e-02 -1.9158027134835720e-03 -8.5811540484428406e-03 2.8339752461761236e-03 1.5534764388576150e-03 3.9522028528153896e-03 4.8614353872835636e-03 -2.7157899457961321e-03 2.9438998899422586e-04 4.2514260858297348e-03 1.3516510371118784e-03 2.0229492802172899e-03 9.0642906725406647e-03 7.4191773310303688e-03 2.7425286825746298e-03 3.6628491943702102e-04 7.4650500901043415e-03 -8.4458710625767708e-03 8.0775050446391106e-03 -4.2724949307739735e-03 -5.0662551075220108e-03 1.0426017455756664e-02 3.7982177454978228e-03 2.7536514680832624e-03 -7.3794639320112765e-05 -5.5831349454820156e-03 7.3031350038945675e-03 -2.4501769803464413e-03 -7.0450237217301037e-06 2.8098570182919502e-03 4.3753394857048988e-03 7.9083489254117012e-03 2.4679719936102629e-03 9.0951286256313324e-03 -2.7700276114046574e-03 -3.5748700611293316e-03 1.0118708014488220e-02 -2.1366683358792216e-04 2.1128982771188021e-03 3.7894146516919136e-03 -2.4270766880363226e-03 6.8001509644091129e-03 5.8584427461028099e-04 1.1433163890615106e-03 1.2067507952451706e-02 -1.1460541281849146e-03 -1.9078429322689772e-03 -3.4796735271811485e-03 -3.5691328812390566e-03 2.3020808584988117e-03 1.2079041451215744e-02 3.1366003677248955e-03 7.3152373079210520e-04 6.2133963219821453e-03 6.0441922396421432e-03 4.0758699178695679e-03 -4.9804113805294037e-03 -3.3512080553919077e-03 2.0164952147752047e-03 -3.8026846013963223e-03 7.0290621370077133e-03 4.3767038732767105e-03 4.8609422519803047e-03 2.6660170406103134e-03 -5.6993444450199604e-03 -2.2289480548352003e-03 -5.4807080887258053e-03 6.9872231688350439e-04 3.5263602621853352e-03 -1.1855523101985455e-02 -6.8564817775040865e-04 5.0118877552449703e-03 -1.8707526847720146e-02 -6.2352200038731098e-03 9.3848453834652901e-03 9.7921919077634811e-03 3.7971804849803448e-03 3.5292534157633781e-03 2.4766540154814720e-03 -1.3836779631674290e-02 8.3829008508473635e-04 6.5493881702423096e-03 6.4112362451851368e-05 -6.5620481036603451e-03 -1.3645084109157324e-03 -3.6802291870117188e-03 6.4072039094753563e-05 -8.2465577870607376e-03 4.5102853327989578e-03 -7.7816983684897423e-04 3.4354324452579021e-03 -6.4303609542548656e-03 5.9162662364542484e-03 7.6826023869216442e-03 4.8608160577714443e-03 4.1619939729571342e-03 -8.4464792162179947e-03 5.3092278540134430e-04 7.9896058887243271e-03 1.5412521548569202e-02 1.2386292219161987e-03 -6.6909571178257465e-03 4.1790925897657871e-03 -7.3588674422353506e-04 -8.1225810572504997e-03 5.4879398085176945e-03 9.4682471826672554e-03 7.0472825318574905e-03 -2.1082081366330385e-03 -7.5984634459018707e-03 3.4666813444346189e-03 6.5519311465322971e-03 -8.6509175598621368e-03 4.3584886007010937e-03 
      </Biases>
    </Layer>
    <Layer ActivationFunction="3">
      <Weights rows="128" cols="128">
        2.6692951098084450e-02 -5.7108659297227859e-02 4.2108826339244843e-02 3.3012982457876205e-02 -4.8976247198879719e-03 2.6893237605690956e-02 3.5220235586166382e-02 -2.7127016335725784e-02 3.8402862846851349e-02 -4.5566268265247345e-02 3.9998207241296768e-02 -5.8464519679546356e-03 -1.7433796077966690e-02 -1.7983205616474152e-02 -6.2141614034771919e-03 -6.1393296346068382e-03 1.7195835709571838e-02 3.1121950596570969e-02 1.5458533540368080e-02 3.0021276324987411e-02 -3.7286885082721710e-02 4.5637473464012146e-02 -2.9585655778646469e-02 3.3204186707735062e-02 1.4741102233529091e-02 -2.7461012825369835e-02 8.2903215661644936e-03 2.6588078588247299e-02 4.1221886873245239e-02 1.5473771840333939e-02 9.6135651692748070e-03 3.6079224199056625e-02 -1.5837796032428741e-02 6.7809135653078556e-03 3.2129902392625809e-02 2.0817676559090614e-02 -2.7651185169816017e-02 -4.9079615622758865e-02 -1.0488630272448063e-02 2.2835480049252510e-02 2.6421695947647095e-03 2.8450749814510345e-02 1.7928462475538254e-02 4.6618092805147171e-02 2.0590049680322409e-03 -2.8412966057658195e-02 1.9983928650617599e-02 2.7432041242718697e-02 4.0923770517110825e-02 3.5465225577354431e-02 -5.7507106103003025e-03 -3.7034653127193451e-02 4.6028211712837219e-02 3.4473205450922251e-03 -1.1356264352798462e-02 9.4298664480447769e-03 -2.5209119543433189e-02 -2.9565265867859125e-03 4.1352920234203339e-02 -3.4929353743791580e-02 5.6916724890470505e-02 -9.0951556339859962e-03 6.4807785674929619e-03 -9.7222318872809410e-03 -1.5457279980182648e-02 3.4601379185914993e-02 -4.1305530816316605e-02 -3.5711668431758881e-02 4.8858456313610077e-02 -1.9578156992793083e-02 -2.3935792967677116e-02 -2.1146740764379501e-02 -1.9943980500102043e-02 1.2181172147393227e-02 -6.3687218353152275e-03 6.3166161999106407e-03 -4.8267403617501259e-03 3.5390944685786963e-03 -2.7572674676775932e-02 8.7585588917136192e-03 2.0371910184621811e-02 -2.3865798488259315e-02 -2.4685991927981377e-02 -1.6972338780760765e-02 1.1246348731219769e-02 -1.6364704817533493e-02 1.7706831917166710e-02 5.2960686385631561e-02 1.4349483884871006e-02 -5.1791165024042130e-02 2.5151152163743973e-02 -4.4679664075374603e-02 -1.1161464266479015e-02 3.6116447299718857e-02 5.0582837313413620e-02 -9.5185916870832443e-03 -3.1331613659858704e-02 2.0978884771466255e-02 9.4336718320846558e-03 2.9582148417830467e-03 2.5609310716390610e-02 3.0871957540512085e-02 5.2986661903560162e-03 -1.5445088967680931e-02 -5.8660306967794895e-03 -2.6286093518137932e-02 3.8892388343811035e-02 -1.2866981327533722e-02 3.4870419767685235e-04 5.0514210015535355e-02 -4.6019915491342545e-02 6.3565890304744244e-03 1.8406599760055542e-02 -7.3085450567305088e-03 -2.3876672610640526e-02 4.2390137910842896e-02 4.2129899375140667e-03 3.0411932617425919e-02 2.8817623853683472e-02 2.3652026429772377e-03 -1.9127527251839638e-02 4.7437794506549835e-02 2.3708768188953400e-02 1.4387154951691628e-02 2.5961855426430702e-03 -2.3895704653114080e-03 -3.1759105622768402e-02 1.8892452120780945e-02 -1.3262663036584854e-02 -2.4721968919038773e-02 2.9298219829797745e-02 -8.0787315964698792e-03 4.1413508355617523e-02 -3.5819683689624071e-03 -3.5136237740516663e-02 -9.2819109559059143e-03 6.3077986240386963e-02 -4.0984153747558594e-02 -5.3123466670513153e-02 3.3832982182502747e-02 7.7219405211508274e-03 -2.2036187350749969e-02 2.5308165699243546e-02 3.0496152117848396e-02 -4.2958553880453110e-02 -2.0759299397468567e-02 -5.7688648812472820e-03 4.1661612689495087e-02 3.3825032413005829e-02 1.4338528737425804e-02 -1.4596203342080116e-02 2.3220553994178772e-02 3.3985786139965057e-02 -4.8303477466106415e-02 1.7334206029772758e-02 1.1304431594908237e-02 2.1423690486699343e-03 -9.2144897207617760e-03 -2.3306345567107201e-02 2.4792369455099106e-02 2.6500934734940529e-02 2.7497870847582817e-02 3.1020315364003181e-02 4.5958127826452255e-02 9.4682080671191216e-03 2.1182836499065161e-03 2.9439225792884827e-02 -2.0515687763690948e-02 4.7919768840074539e-03 1.3646867126226425e-02 -5.1428973674774170e-02 -1.8189454451203346e-02 -4.1264034807682037e-02 -4.4648591428995132e-02 -8.3410885417833924e-04 6.8335970863699913e-03 3.6976203322410583e-02 3.3789865672588348e-02 -1.3783959671854973e-02 3.7484180182218552e-02 4.2646229267120361e-02 -6.2187079340219498e-02 -2.4369370192289352e-02 1.9993197172880173e-02 -5.2921131253242493e-02 -3.3072087913751602e-02 -2.6921838521957397e-02 -6.1927307397127151e-03 2.6079263538122177e-02 -2.2454924881458282e-02 4.6558077447116375e-03 -8.9706043945625424e-04 -3.1312871724367142e-02 9.6493056043982506e-03 -3.0204260256141424e-03 -2.9301242902874947e-02 -3.5147372633218765e-02 1.2030756101012230e-02 5.5828955955803394e-03 -3.5257481038570404e-02 2.7992967516183853e-02 4.6090364456176758e-02 -3.2268472015857697e-02 -4.4140379875898361e-02 3.4564055502414703e-02 3.3369418233633041e-02 2.7380025014281273e-02 3.8448784500360489e-02 1.9247565418481827e-02 1.6892733052372932e-02 -1.1606159619987011e-02 6.9595579989254475e-03 -5.4714657366275787e-02 1.3719541020691395e-02 4.7200713306665421e-02 -3.8128998130559921e-02 4.4535268098115921e-02 -4.4970728456974030e-02 -1.0880929417908192e-02 -3.7154968827962875e-02 -4.4693704694509506e-03 4.5454118400812149e-02 3.1530130654573441e-02 4.1560452431440353e-02 3.9242006838321686e-02 3.5227693617343903e-02 1.0962155647575855e-02 -4.1231665760278702e-02 1.1995393782854080e-02 2.3840069770812988e-02 2.4021983146667480e-02 9.0704001486301422e-03 3.3335324376821518e-02 -1.8338913097977638e-02 8.1147952005267143e-04 -2.2881532087922096e-02 4.2387813329696655e-02 -1.6006659716367722e-02 5.2759859710931778e-02 -1.8538262695074081e-02 -2.4769075214862823e-02 -1.6105979681015015e-02 -4.8142667859792709e-02 -2.9096394777297974e-02 -2.4899027775973082e-03 2.3626316338777542e-02 -3.9357051253318787e-02 2.5545112788677216e-02 1.6194062307476997e-02 1.9427359104156494e-02 -2.4956123903393745e-02 1.8588514998555183e-02 -3.2019805163145065e-02 -5.0813689827919006e-02 3.5397708415985107e-02 -9.8589640110731125e-03 -4.4177155941724777e-02 3.8640312850475311e-02 -1.0197831317782402e-02 -7.9768998548388481e-03 -2.9479335993528366e-02 -2.1882003173232079e-02 6.6963029094040394e-03 -4.5751959085464478e-02 1.4919788576662540e-02 -8.1504648551344872e-03 1.7297344282269478e-02 -5.5761437863111496e-02 -2.5337925180792809e-02 -1.1859127320349216e-02 2.7172021567821503e-02 9.1219637542963028e-03 -7.8238481655716896e-03 -1.7655372619628906e-02 -1.2325676158070564e-02 -3.6069981753826141e-02 3.1506001949310303e-02 -2.1821677684783936e-02 -8.7705710902810097e-03 1.0683967731893063e-02 2.5644190609455109e-02 4.5368419960141182e-03 -3.5852927714586258e-02 1.8102034926414490e-02 4.6153929084539413e-02 -1.5640433877706528e-02 3.3737052232027054e-02 4.0673919022083282e-02 -3.0038148164749146e-02 1.8306488171219826e-02 -3.0508765950798988e-02 2.0552247762680054e-02 1.6558742150664330e-02 -4.4200684875249863e-02 3.5850703716278076e-02 1.5930956229567528e-02 -1.0681729763746262e-02 4.6259909868240356e-02 -2.5070540141314268e-03 1.0903970338404179e-02 2.6393080130219460e-02 -4.9557339400053024e-02 -1.3959081843495369e-02 4.8392172902822495e-02 -3.5030435770750046e-02 -1.4042192138731480e-02 4.8128709197044373e-02 1.5908494591712952e-02 -8.9490570826455951e-04 -3.4573525190353394e-02 -2.6709778234362602e-02 1.8660578876733780e-02 -1.2091634795069695e-02 1.4401789754629135e-02 2.8122851625084877e-02 -2.8248967602849007e-02 3.9180830121040344e-02 -4.7215946018695831e-02 -3.5698921419680119e-03 3.6496885120868683e-02 -1.8974915146827698e-02 -3.8150276988744736e-02 5.3773508407175541e-03 -2.0071497187018394e-02 3.4052290022373199e-02 -4.8708964139223099e-02 3.1260836869478226e-02 -1.5108415856957436e-02 6.3104266300797462e-03 5.1948655396699905e-02 6.3133961521089077e-03 -4.3439578264951706e-02 -8.6009949445724487e-03 -4.5800060033798218e-02 -2.8770616278052330e-02 3.0456213280558586e-02 5.2183348685503006e-02 7.3321134550496936e-04 4.0119398385286331e-02 -3.4942299127578735e-02 5.1002358086407185e-03 -3.8269747048616409e-02 4.0073577314615250e-02 6.7048869095742702e-03 -4.6176165342330933e-02 4.1546311229467392e-02 2.1535407286137342e-03 3.7624366581439972e-02 1.5573597513139248e-02 1.1917982250452042e-02 2.2334318608045578e-02 -4.8251636326313019e-02 -2.5604369118809700e-02 4.4112071394920349e-02 -3.4830119460821152e-02 5.0354667007923126e-02 9.1718100011348724e-03 1.5256501734256744e-02 4.2355038225650787e-02 1.6981175169348717e-02 3.6289412528276443e-02 1.7244836315512657e-02 -1.7898565158247948e-02 9.3732709065079689e-03 -2.1842135116457939e-02 -4.9392916262149811e-02 -1.3647144660353661e-02 4.8284888267517090e-02 2.7397802099585533e-02 -3.5532627254724503e-02 4.1847690939903259e-02 -2.9011126607656479e-02 -3.0385198071599007e-02 4.5809768140316010e-02 1.1764188529923558e-03 3.2531894743442535e-02 1.2852551415562630e-02 -2.4664958938956261e-02 4.8379074782133102e-02 -9.1305812820792198e-03 -9.0127298608422279e-03 -2.8633095324039459e-02 3.2417573034763336e-02 2.4875877425074577e-02 2.2773677483201027e-02 -8.3701666444540024e-03 -4.0619399398565292e-02 3.1353235244750977e-02 1.2090503005310893e-03 -8.9802779257297516e-03 -3.8377713412046432e-02 4.0584210306406021e-02 -1.8365753814578056e-02 2.5323139503598213e-02 -3.0986923724412918e-02 2.5446692481637001e-02 -3.8925227709114552e-03 -1.5672478824853897e-02 -1.7232799902558327e-02 -1.6507638618350029e-02 -1.9900558516383171e-02 -3.6842104047536850e-02 -2.8878426179289818e-02 -4.8757255077362061e-02 -1.5832113102078438e-02 1.7906064167618752e-02 3.8817189633846283e-02 -7.1038263849914074e-03 4.6454090625047684e-02 -4.4626660645008087e-02 4.7834016382694244e-02 4.4323559850454330e-02 4.1686825454235077e-02 3.7136506289243698e-02 2.2428717464208603e-02 -1.2972793541848660e-02 1.1223996989428997e-02 -2.7279589325189590e-02 1.2204298749566078e-02 -2.7841450646519661e-02 -8.3249021554365754e-04 -1.4759040437638760e-02 2.6917146518826485e-02 4.4280219823122025e-02 -2.1137280389666557e-02 2.6642508804798126e-02 1.3615872710943222e-02 -4.2522709816694260e-02 -2.8809461742639542e-02 -2.0147735252976418e-02 -6.2662949785590172e-03 3.3641096204519272e-02 -1.5256094746291637e-02 -3.8464874029159546e-02 3.6762483417987823e-02 2.9140971601009369e-02 -3.6677081137895584e-02 3.2210323959589005e-02 -2.5459168478846550e-02 5.2362225949764252e-02 5.4483567364513874e-03 4.8747408436611295e-04 -2.2786907851696014e-02 -1.7497260123491287e-02 -2.4027435109019279e-02 4.6405047178268433e-02 -4.8554614186286926e-02 1.7089854925870895e-02 -1.1302432045340538e-02 2.4073507636785507e-02 -1.2997584417462349e-02 -2.2783670574426651e-02 4.1579384356737137e-02 -2.8595658019185066e-02 1.9871452823281288e-02 -3.8967557251453400e-02 8.0041503533720970e-03 8.5006570443511009e-03 5.9150140732526779e-03 -2.5819655507802963e-02 3.3165305852890015e-02 -1.3898215256631374e-02 6.8647391162812710e-04 -5.0823302008211613e-03 -5.0592757761478424e-02 -6.2018586322665215e-04 3.3301170333288610e-04 4.4294081628322601e-02 5.2183587104082108e-02 -1.7184315249323845e-02 4.6467263251543045e-02 1.9583884626626968e-02 2.5342071428894997e-02 -1.4765529893338680e-02 -2.3749541491270065e-02 1.8596207723021507e-02 -4.0800288319587708e-02 -3.2050881534814835e-02 -2.4560414254665375e-02 4.4247552752494812e-02 -1.4020640403032303e-02 4.4036921113729477e-02 -2.4222446605563164e-02 -3.3355504274368286e-02 4.6193350106477737e-02 9.3247648328542709e-03 -1.7784990370273590e-02 -7.4767335318028927e-03 4.1873164474964142e-02 -1.6526132822036743e-02 3.7949003279209137e-02 -1.6563119424972683e-04 -1.7246300354599953e-02 5.1319129765033722e-02 -2.3318661376833916e-02 -4.3928731232881546e-02 -5.2180375903844833e-02 -4.1925355792045593e-02 3.8323264569044113e-02 1.5943337231874466e-02 1.8656693398952484e-02 -1.3784985989332199e-02 -2.8073379769921303e-02 -1.1341622099280357e-02 -4.2869172990322113e-02 -6.5016467124223709e-03 1.7897682264447212e-02 -5.0176233053207397e-03 -5.1409304141998291e-03 -4.9870338290929794e-02 -1.3351662084460258e-02 -3.8814023137092590e-02 3.6131512373685837e-02 4.1075345128774643e-02 5.9770722873508930e-03 -2.9244807083159685e-03 -5.2173715084791183e-02 1.1660766787827015e-02 -2.2930596023797989e-02 -1.6905291005969048e-02 -4.3555475771427155e-02 3.3710744231939316e-02 -3.4103307873010635e-02 4.3436970561742783e-02 -1.3285904191434383e-02 1.9130599685013294e-03 -2.3651715368032455e-02 -3.0214538797736168e-02 -1.9877865910530090e-02 4.2053360491991043e-02 -2.6525512803345919e-03 -2.0696196705102921e-02 2.5860780850052834e-02 3.2122630625963211e-02 -1.2978549115359783e-02 9.4885220751166344e-03 -4.9035981297492981e-02 4.3746031820774078e-02 4.3227706104516983e-02 -8.1826103851199150e-03 -3.2634202390909195e-02 -2.3410257417708635e-03 -2.7640987187623978e-02 -1.6345027834177017e-02 2.6617275550961494e-02 -7.5063947588205338e-03 1.1562883155420423e-03 2.2025628015398979e-02 1.5446336939930916e-02 -3.6073841154575348e-02 -1.2097028084099293e-02 5.0147056579589844e-02 1.5249385498464108e-02 -4.1016791015863419e-02 -3.5903775133192539e-03 4.0443096309900284e-02 -3.2361630350351334e-02 3.9158705621957779e-02 -2.4455415084958076e-02 2.6004325598478317e-02 -3.0151527374982834e-02 -3.0532203614711761e-02 2.6608711108565331e-02 5.2563909441232681e-02 -2.3184442892670631e-02 -1.3758267275989056e-02 -6.4313183538615704e-03 -4.1933793574571609e-02 5.9110694564878941e-03 3.2885868102312088e-02 -3.7162806838750839e-02 -3.9384339004755020e-02 -1.8048722296953201e-02 -2.2828811779618263e-02 3.5007630940526724e-03 -2.9545892030000687e-02 1.2124332599341869e-02 -1.4873195905238390e-03 -1.6605950891971588e-02 -1.8251854926347733e-02 4.3269492685794830e-02 -1.0708899237215519e-02 -3.2891925424337387e-02 3.6269973963499069e-02 1.3791279867291451e-02 2.8814779594540596e-02 1.8222279846668243e-02 4.7929666936397552e-02 3.2318178564310074e-02 2.2700652480125427e-02 5.0639111548662186e-02 -4.7782999463379383e-03 2.9132718220353127e-02 8.7429499253630638e-03 7.3243030346930027e-03 -5.2364571020007133e-03 -4.0106151252985001e-02 3.5282146185636520e-02 -1.0164094157516956e-02 1.3681046664714813e-02 7.0075928233563900e-03 3.1974885612726212e-02 -7.8825000673532486e-03 2.4076305329799652e-02 3.1799117568880320e-03 -1.5376540832221508e-02 -5.5777165107429028e-03 -3.5248905420303345e-02 -3.7025697529315948e-02 -4.1692826896905899e-02 -5.8727487921714783e-02 -5.5052213370800018e-02 2.5503071025013924e-02 2.3443784564733505e-02 1.4216055162250996e-02 1.4971862547099590e-02 6.5284534357488155e-03 2.1914733573794365e-02 -8.2873217761516571e-03 -4.4414885342121124e-03 4.1154094040393829e-02 -3.9858385920524597e-02 3.2361499965190887e-02 3.2065421342849731e-02 1.7281347885727882e-02 -2.6837177574634552e-03 -3.5937350243330002e-02 -5.6057639420032501e-02 9.6190348267555237e-03 4.6488244086503983e-02 3.3069096505641937e-02 2.2586686536669731e-02 1.8402822315692902e-02 3.1358581036329269e-02 1.5638470649719238e-02 3.2821085769683123e-03 4.6515133231878281e-02 4.0991932153701782e-02 9.2275012284517288e-03 8.8361939415335655e-03 -5.1849346607923508e-02 2.5803038850426674e-02 3.3170517417602241e-04 -3.1248005107045174e-02 -3.0533382669091225e-02 -3.8521841168403625e-02 -5.1171202212572098e-02 -1.8837483599781990e-02 -1.1227431707084179e-02 4.1547864675521851e-02 -4.6787861734628677e-02 1.0634127072989941e-02 -1.0749028064310551e-02 3.4832593053579330e-02 4.6332467347383499e-02 3.8822066038846970e-02 9.5970258116722107e-03 9.8922932520508766e-03 2.1077942103147507e-02 -1.2930031865835190e-02 -7.8796083107590675e-03 -3.8489773869514465e-02 4.6411097049713135e-02 1.9370699301362038e-02 1.7790984362363815e-02 -1.7160110175609589e-02 -5.0802066922187805e-02 -4.7010511159896851e-02 1.3330940157175064e-02 1.6888324171304703e-02 -9.4681503251194954e-03 -1.4158575795590878e-02 -3.9326790720224380e-02 -7.2762276977300644e-03 2.3679185658693314e-02 3.6562018096446991e-02 2.9673540964722633e-02 -1.5807049348950386e-02 -5.8548101224005222e-03 -1.2036048807203770e-02 -4.6286322176456451e-02 -3.5841744393110275e-02 3.8904309272766113e-02 4.9080874770879745e-02 8.8744154199957848e-03 -2.5002569891512394e-03 -8.2636754959821701e-03 2.2795904427766800e-02 4.3534774333238602e-02 3.3765915781259537e-02 -3.5477619618177414e-02 1.1572698131203651e-02 1.4031850732862949e-02 2.0785013213753700e-02 6.1329398304224014e-03 3.8683749735355377e-02 -2.1619549021124840e-02 -3.8989029824733734e-02 8.6507927626371384e-03 -2.4220131337642670e-02 3.0678970739245415e-02 -2.8307700529694557e-02 3.6852687597274780e-02 -4.0680270642042160e-02 -5.5982578545808792e-02 3.7485498934984207e-02 -6.0433996841311455e-03 -1.9510978600010276e-03 -1.4216553419828415e-02 2.4945212528109550e-02 8.8883936405181885e-04 -1.1057470925152302e-02 -5.1548979245126247e-03 3.3060215413570404e-02 8.0279605463147163e-03 -3.1535014510154724e-02 5.4469589143991470e-02 -1.1750711128115654e-02 -2.4319242686033249e-02 -2.0188450813293457e-02 -1.9108960404992104e-02 1.9822495523840189e-03 1.5410481952130795e-02 -6.0725435614585876e-02 2.6772949844598770e-02 5.5076677352190018e-02 -7.3716337792575359e-03 -1.7800496891140938e-02 -3.1891189515590668e-02 6.8030310794711113e-03 -1.0321637615561485e-02 2.0394776016473770e-02 -5.3928615525364876e-03 -8.7536945939064026e-03 2.1119954064488411e-02 -4.8735748976469040e-02 3.0439251568168402e-03 -1.3694074004888535e-02 -1.4282615855336189e-02 2.3087026551365852e-02 -3.4431554377079010e-02 4.3107452802360058e-03 -5.4947111755609512e-02 4.4900611042976379e-02 -4.5154783874750137e-02 4.4602174311876297e-02 -3.5622116178274155e-02 -3.4583922475576401e-02 1.3352171517908573e-02 -2.3409655317664146e-02 1.2299051508307457e-02 -3.8086708635091782e-02 4.0623761713504791e-02 3.2291751354932785e-02 5.5842022411525249e-03 -2.1214963868260384e-02 -2.6884194463491440e-02 -3.4426935017108917e-02 2.5725124869495630e-03 6.9441432133316994e-03 5.0401738844811916e-03 -2.0952485501766205e-02 1.3570830225944519e-02 -1.7080417601391673e-03 6.6450014710426331e-03 2.6739472523331642e-02 -6.4265946857631207e-03 -3.5009957849979401e-02 -2.1246362477540970e-02 4.4146928936243057e-02 -5.2191819995641708e-02 3.6752115935087204e-02 -2.4326924234628677e-02 -5.1896102726459503e-02 -4.1589185595512390e-02 -1.7534304410219193e-02 -8.8712107390165329e-03 4.4038604944944382e-02 -1.2255300767719746e-02 3.1223814934492111e-02 -3.5331718623638153e-02 2.3293578997254372e-02 -4.7262221574783325e-02 -2.8517052531242371e-02 2.4276522453874350e-03 5.5121626704931259e-02 3.3420506864786148e-02 3.8974676281213760e-02 -6.6337198019027710e-02 1.9972810521721840e-02 4.3745137751102448e-02 1.0671129450201988e-02 3.7074878811836243e-02 2.8066694736480713e-02 -4.1230525821447372e-02 -1.0377189144492149e-02 4.5337006449699402e-02 -2.0442867651581764e-02 -2.5684358552098274e-02 -4.9777152016758919e-03 -8.0367783084511757e-03 3.1590887811034918e-03 4.2788900434970856e-02 -1.6671059653162956e-02 1.2387932278215885e-02 -3.0769435688853264e-02 3.5651527345180511e-02 -2.1803701296448708e-02 -2.1592820063233376e-02 1.2765155173838139e-02 -2.5438278913497925e-02 -4.5559398829936981e-02 1.0692611336708069e-02 9.5400996506214142e-03 -1.8981147150043398e-04 -5.0625152885913849e-02 -4.3631199747323990e-02 -2.8197819367051125e-02 -1.3039394281804562e-02 -5.5707674473524094e-03 -4.0276296436786652e-02 -3.4548882395029068e-02 -3.0061947181820869e-03 1.6548478975892067e-02 -3.4751344472169876e-02 -2.1775612607598305e-02 -4.9425382167100906e-02 5.1157817244529724e-02 -3.1811028718948364e-02 2.1996511146426201e-02 4.6746707521378994e-03 -3.5872276872396469e-02 1.5767328441143036e-02 -2.5211606174707413e-02 -4.9750085920095444e-02 8.9829163625836372e-03 -3.0496262013912201e-02 -3.4734252840280533e-02 -1.2552139814943075e-03 3.6223378032445908e-02 2.6072271168231964e-02 -4.3487347662448883e-02 2.8248684480786324e-02 4.6479731798171997e-02 2.0153056830167770e-02 6.4073330722749233e-03 7.9161627218127251e-03 -1.6875091940164566e-02 -4.4618014246225357e-02 2.4775065481662750e-02 5.9215221554040909e-03 -1.9368993118405342e-02 -1.5180051326751709e-02 1.9944598898291588e-02 5.7473592460155487e-03 4.1834011673927307e-02 -1.2657782062888145e-03 2.8861545026302338e-02 -4.6625964343547821e-02 -4.8069149255752563e-02 9.2713702470064163e-03 -9.1863395646214485e-03 4.2624160647392273e-02 -3.2704241573810577e-02 4.7247461974620819e-02 1.5219395980238914e-02 1.8054764717817307e-02 5.4850712418556213e-02 -4.7349173575639725e-02 -1.7143178731203079e-02 -2.1525438874959946e-02 -3.2758284360170364e-02 3.5849116742610931e-02 -2.0460535306483507e-03 -1.7793305218219757e-02 -7.4178082868456841e-03 -4.3919354677200317e-02 -1.2366420589387417e-02 -2.7662934735417366e-02 1.9044950604438782e-02 -4.6095632016658783e-02 -2.5655254721641541e-02 -3.1264364719390869e-02 2.5291077792644501e-02 -2.1182460710406303e-02 3.4664792474359274e-03 -7.6163541525602341e-03 4.7060351818799973e-02 -1.4757301658391953e-02 -4.3022159487009048e-02 4.5586470514535904e-02 3.7990929558873177e-03 4.6503979712724686e-02 2.5884388014674187e-02 -5.4255463182926178e-02 -4.2378872632980347e-02 1.3072087429463863e-02 -3.2362325582653284e-03 -4.1041489690542221e-02 2.1234324201941490e-02 -9.5385685563087463e-03 3.4663558006286621e-02 -4.7915548086166382e-02 1.8713723868131638e-02 9.1165918856859207e-03 -1.3945974409580231e-02 -1.7742423340678215e-02 -4.7740521840751171e-03 1.4596075750887394e-02 5.6191328912973404e-03 -1.6914293169975281e-02 1.9008120521903038e-02 -7.8496448695659637e-03 -5.7171173393726349e-02 -1.9438665360212326e-02 -3.2292950898408890e-02 -3.0199522152543068e-02 -4.8540294170379639e-02 7.0688729174435139e-03 -3.5961098968982697e-02 4.0916249155998230e-02 3.6370769143104553e-02 -4.2680089245550334e-04 -5.3278256207704544e-02 -3.2611247152090073e-03 -2.2077517583966255e-02 -4.0654845535755157e-02 1.2000362388789654e-02 -9.1408600565046072e-04 -3.5379448672756553e-04 -9.9103031679987907e-03 -1.7762086354196072e-03 9.9718021228909492e-03 4.9787454307079315e-02 -3.3237043768167496e-02 -3.3098835498094559e-02 4.3956205248832703e-02 1.0534462518990040e-02 -1.1191300116479397e-02 -2.7751516550779343e-02 -3.9807721972465515e-02 1.7412548884749413e-02 -8.0460580065846443e-03 -2.3440351709723473e-02 -2.5062365457415581e-02 -9.2141469940543175e-03 -1.0154912248253822e-02 1.9503433257341385e-02 -1.0944255627691746e-02 -1.5171408653259277e-02 -2.3283308371901512e-02 1.9094668328762054e-02 -2.2674394771456718e-02 -1.8565837293863297e-02 -1.0084688663482666e-02 -4.9081776291131973e-02 1.4819339849054813e-02 -1.2928572483360767e-02 -2.7298290282487869e-02 8.7890569120645523e-03 -3.3720258623361588e-02 4.0493123233318329e-02 -9.0695722028613091e-03 3.4955061972141266e-02 -4.0884215384721756e-02 1.5287128277122974e-02 -3.0252387747168541e-02 -7.4527855031192303e-03 3.4607574343681335e-02 1.2866589240729809e-02 -2.6824492961168289e-02 2.3179270327091217e-02 5.6769561022520065e-02 -1.1630897410213947e-02 1.1773284524679184e-02 9.7393747419118881e-03 3.1340461224317551e-02 -4.7172207385301590e-02 2.7082581073045731e-02 2.9750626534223557e-02 -1.8665546551346779e-02 1.1923798359930515e-02 -9.0871853753924370e-03 1.9106138497591019e-02 -3.1354665756225586e-02 -9.0665575116872787e-03 -1.6308315098285675e-02 2.3106971755623817e-02 2.6923101395368576e-02 2.2479716688394547e-02 -7.1367477066814899e-03 -1.4264639467000961e-02 -1.8217572942376137e-02 1.9307218492031097e-02 -4.9281552433967590e-02 2.5443008169531822e-02 3.9820548146963120e-02 1.6752084717154503e-02 -3.3944219350814819e-02 -2.3119423538446426e-02 3.3746559172868729e-02 2.0243521779775620e-02 -3.6083973944187164e-02 5.2762191742658615e-02 -6.9595188833773136e-03 4.2590416967868805e-02 -9.2411050572991371e-03 -1.1144864372909069e-02 3.1313512474298477e-02 -3.0404243618249893e-02 -4.6816129237413406e-02 1.3644010759890079e-02 4.7299027442932129e-02 -4.9673402681946754e-03 -2.9056428000330925e-02 2.0009923726320267e-02 -1.6988808289170265e-02 -1.9641168415546417e-02 -5.0177149474620819e-02 3.3811602741479874e-02 -4.9669144209474325e-04 1.8524132668972015e-02 3.5391174256801605e-02 -4.8053335398435593e-02 2.4238593876361847e-02 -9.6777239814400673e-03 -4.2668417096138000e-02 -3.9046999067068100e-02 1.7792781814932823e-02 3.8644254207611084e-02 -3.8244362920522690e-02 -1.1998107656836510e-02 -1.5826744958758354e-02 -4.1672874242067337e-02 -4.6279326081275940e-02 1.9279614090919495e-02 4.3968181125819683e-03 -1.3670383952558041e-02 -1.2472135713323951e-03 4.0203753858804703e-02 -7.6316986232995987e-03 4.1637077927589417e-02 -2.2617653012275696e-02 2.3333953693509102e-02 1.2526707723736763e-02 2.2108929231762886e-02 -2.4351848289370537e-02 -1.9237106665968895e-02 5.1691766828298569e-02 1.0095975361764431e-02 2.4376114830374718e-02 -1.6873894259333611e-02 -1.7682222649455070e-02 3.5554189234972000e-02 -6.8242652341723442e-03 -1.5629459172487259e-02 2.9085537418723106e-02 4.1866958141326904e-02 2.2521845996379852e-02 1.5398666262626648e-02 -4.2856965214014053e-02 4.7792695462703705e-02 -2.1394575014710426e-02 -2.6055391877889633e-02 1.1867485940456390e-02 -1.4203621074557304e-02 -4.2335968464612961e-02 -3.2070320099592209e-02 -4.7097117640078068e-03 -5.0345254130661488e-03 2.1887546405196190e-02 -2.4264877662062645e-02 3.6498285830020905e-02 -4.3633431196212769e-03 -1.9353429088369012e-03 -3.7745341658592224e-02 6.3009280711412430e-03 1.8426623195409775e-02 3.0278705060482025e-02 6.4519802108407021e-03 2.4355879053473473e-02 -5.2230954170227051e-02 -2.5286881253123283e-02 -8.4732975810766220e-03 3.5369385033845901e-02 -7.5544668361544609e-03 2.7913087978959084e-02 2.2382473573088646e-02 -4.1113957762718201e-02 -4.2336616665124893e-02 4.4767722487449646e-02 3.3870402723550797e-02 -4.5835338532924652e-02 -1.1002406477928162e-02 1.6271224245429039e-02 3.0764041468501091e-02 3.5518676042556763e-02 -2.3762797936797142e-02 -6.8319034762680531e-03 -1.2000858783721924e-02 1.3574012555181980e-02 -3.4180760383605957e-02 3.2842449843883514e-02 -1.7699636518955231e-03 3.0634084716439247e-02 -3.9567880332469940e-02 -4.8923399299383163e-03 1.7298521474003792e-02 -3.5928569734096527e-02 -2.1063096355646849e-03 7.5431931763887405e-03 4.0581911802291870e-02 3.5274874418973923e-02 -3.5580536350607872e-03 -4.9424241296947002e-03 3.7191040813922882e-02 -2.0168876275420189e-02 7.0992615073919296e-03 -3.4929972141981125e-02 -3.1017165631055832e-02 -4.0682289749383926e-02 5.4085808806121349e-03 -4.4402536004781723e-02 2.4335963651537895e-02 -5.0314966589212418e-02 3.8138538599014282e-02 -4.5600268989801407e-02 3.6112146917730570e-03 5.8486866764724255e-03 -2.0473487675189972e-02 3.2063804566860199e-02 3.3524874597787857e-02 -3.6185298115015030e-02 2.5302371010184288e-02 -7.4522467330098152e-03 -1.2193890288472176e-02 -2.8126645833253860e-02 -2.1107347682118416e-02 -2.0015923306345940e-02 1.6930891200900078e-02 2.5474313646554947e-02 -2.0384307950735092e-02 -2.1106040105223656e-02 3.5583399236202240e-02 2.2390399128198624e-02 1.9528849050402641e-02 -2.3750593885779381e-02 3.8431841880083084e-02 3.4415658563375473e-02 1.3666976243257523e-02 -2.5925252586603165e-02 -1.0903938673436642e-03 -2.3231696337461472e-02 4.1824471205472946e-02 -2.1092601120471954e-02 2.8122892603278160e-02 2.6284504681825638e-02 2.0175233483314514e-02 1.4680729247629642e-02 3.5769734531641006e-02 -4.5502457767724991e-02 -3.6703087389469147e-02 -3.0948227271437645e-02 -2.7973931282758713e-02 -5.0138819962739944e-02 3.2251519151031971e-03 3.5978814121335745e-03 -2.8315709903836250e-02 -5.3648564964532852e-02 -2.2138539701700211e-02 5.7702708989381790e-02 -4.3261334300041199e-02 -6.9852336309850216e-04 3.3620788599364460e-04 4.4301908463239670e-02 -4.9094324931502342e-03 -4.6970918774604797e-02 -1.0837818495929241e-02 1.5668420819565654e-03 -2.7272323495708406e-04 -1.1089604347944260e-02 -2.0062973722815514e-02 -7.5079165399074554e-03 1.8083859235048294e-02 -3.1831648200750351e-02 3.4800723195075989e-02 2.5663046166300774e-02 -1.2677346356213093e-02 1.3829279690980911e-02 -4.6656783670186996e-02 1.4936087653040886e-02 2.4739453569054604e-02 -3.6990690976381302e-02 4.3576201424002647e-03 -1.7879903316497803e-02 4.3204568326473236e-02 4.5683357864618301e-02 -1.6028387472033501e-02 1.8004868179559708e-02 -4.9336459487676620e-02 -5.1439408212900162e-02 3.5390183329582214e-02 -4.7558244317770004e-02 3.4117657691240311e-02 4.2744509875774384e-02 2.9442064464092255e-02 3.4334514290094376e-02 2.3148292675614357e-02 -2.9591203201562166e-03 -2.6461685076355934e-02 3.1580068171024323e-02 2.3834267631173134e-02 1.2694114819169044e-02 4.4200222939252853e-02 -2.8598822653293610e-02 -4.9817948602139950e-03 2.2705422714352608e-02 -2.9464119579643011e-03 -6.5283528529107571e-03 2.6011466979980469e-02 3.2226826995611191e-02 -2.1860111504793167e-02 1.1410702019929886e-02 7.6677068136632442e-03 -3.3347696065902710e-02 9.2995986342430115e-03 1.7787778750061989e-02 3.3765852451324463e-02 4.6679683029651642e-02 -2.9684880282729864e-03 5.0780646502971649e-02 3.9960116147994995e-02 -4.3989367783069611e-02 2.7558218687772751e-02 -5.6292675435543060e-02 -2.8694249689579010e-02 2.1672019734978676e-02 -2.1584576461464167e-03 3.8156948983669281e-02 -1.7353378236293793e-02 -2.4785086512565613e-02 4.0215086191892624e-02 -1.2199536286061630e-04 -3.1301081180572510e-03 -5.4562240839004517e-03 -3.0655099079012871e-02 -1.5688611194491386e-02 3.7993289530277252e-02 2.3500712122768164e-03 2.4261157959699631e-02 2.6893254369497299e-02 -6.2816301360726357e-03 7.6765599660575390e-03 3.7438578903675079e-02 2.4445798248052597e-02 -4.4045753777027130e-02 4.8360940068960190e-02 6.9437478668987751e-03 2.7967412024736404e-02 1.9253601785749197e-03 -8.7733520194888115e-03 1.9872566685080528e-02 -2.8091086074709892e-02 6.1250724829733372e-03 4.8001337796449661e-02 -7.0631634443998337e-03 -2.7115814387798309e-02 4.2295671999454498e-02 -5.6343220174312592e-02 1.2476166710257530e-02 4.2675361037254333e-02 4.5957248657941818e-02 5.8964914642274380e-03 -2.8772262856364250e-02 -2.7900142595171928e-02 -4.1589207947254181e-02 -4.8923023045063019e-02 -2.3063175380229950e-02 3.2405104488134384e-02 -5.4574757814407349e-03 1.6672326251864433e-02 -2.6936545968055725e-02 3.0881531536579132e-02 3.4497871994972229e-02 -3.3109836280345917e-02 1.8348749727010727e-02 2.1806750446557999e-02 -2.3373179137706757e-02 2.2580867633223534e-02 -4.3296977877616882e-02 -1.0941157117486000e-02 -1.7306374385952950e-02 1.6869494691491127e-02 -5.4524354636669159e-02 1.3298121048137546e-03 4.0431719273328781e-02 -2.5043578818440437e-02 4.9117901362478733e-03 2.4249365553259850e-02 -9.1974819079041481e-03 -1.2669794261455536e-02 4.3382462114095688e-02 -1.8910497426986694e-02 2.5899734348058701e-02 -3.2596953213214874e-02 -4.8595756292343140e-02 2.5869635865092278e-02 9.0368348173797131e-04 -2.1860741078853607e-02 1.1494809761643410e-02 4.3910212814807892e-02 -3.3624351024627686e-02 2.8604699298739433e-02 2.7367727831006050e-02 2.5072304997593164e-03 2.8410179074853659e-03 3.5453978925943375e-02 4.3855000287294388e-02 3.3414945006370544e-02 -3.6823716014623642e-02 3.6750219762325287e-02 4.4866718351840973e-02 5.1243226975202560e-02 -2.1192859858274460e-02 -4.5438475906848907e-02 1.1203612200915813e-02 1.2859310954809189e-02 2.5582078844308853e-02 7.4193435721099377e-03 -4.6133540570735931e-02 -1.7736675217747688e-02 3.3183351159095764e-02 -4.0867894887924194e-02 -1.1077957227826118e-02 -3.3481046557426453e-02 -5.2512321621179581e-02 -7.3273753514513373e-04 5.9409685432910919e-02 5.4031196981668472e-02 -3.2184626907110214e-02 -1.7077758908271790e-02 1.8939072266221046e-02 1.5296234749257565e-02 2.9547234997153282e-02 1.7606532201170921e-02 1.3239677995443344e-02 -3.0664652585983276e-02 -8.4592057392001152e-03 1.1722069233655930e-02 2.6929736137390137e-02 -6.5846722573041916e-03 2.7154790237545967e-02 1.8929038196802139e-02 1.7152486834675074e-03 4.6282116323709488e-02 -3.2916612923145294e-02 6.6856811754405499e-03 2.5719644327182323e-05 -2.1460077550727874e-04 1.9064242020249367e-02 -1.6598373185843229e-03 -2.4710469879209995e-03 8.7973913177847862e-03 3.7100322544574738e-02 -4.1570514440536499e-02 1.9687701016664505e-02 -3.0557487159967422e-02 -4.9552790820598602e-02 4.2197898030281067e-02 8.0625405535101891e-03 2.0789897069334984e-02 4.5893430709838867e-02 -1.9642351195216179e-02 6.4616776071488857e-03 -1.9740432500839233e-02 7.2643677704036236e-03 4.1076429188251495e-02 2.7656439691781998e-02 8.6609590798616409e-03 1.8414104357361794e-02 2.0757017657160759e-02 -1.3576790690422058e-02 -4.6318117529153824e-02 1.9493537023663521e-02 -2.4110380560159683e-02 -2.8223345056176186e-02 -3.3183654304593801e-03 -1.0989307425916195e-02 5.0297960638999939e-02 4.5222047716379166e-02 -3.8769145030528307e-03 1.5074835158884525e-02 -3.8030397146940231e-02 3.7993717938661575e-02 -2.7797287330031395e-03 -4.8464359715580940e-03 -1.3880403712391853e-02 3.9267223328351974e-02 1.4204200357198715e-02 -3.0091192573308945e-02 -3.1799457967281342e-02 1.8153382465243340e-02 8.4484880790114403e-03 -6.0852937400341034e-02 -3.9985594339668751e-03 1.8306281417608261e-02 -3.1299371272325516e-02 4.7337114810943604e-02 -8.4628323093056679e-03 1.3711911626160145e-02 -6.9708484224975109e-03 1.4368901029229164e-02 4.0754970163106918e-02 -2.2921385243535042e-03 1.9228599965572357e-02 9.5090596005320549e-03 3.5464372485876083e-02 1.9439706578850746e-02 3.6885239183902740e-02 -4.3455477803945541e-02 -4.8087187111377716e-02 4.0782641619443893e-02 -1.2689780443906784e-02 4.6213008463382721e-02 -3.6962918937206268e-02 1.0240505449473858e-02 4.6109814196825027e-02 3.5593315958976746e-02 1.8901402130723000e-02 2.2482923232018948e-03 -2.1764503791928291e-02 5.8515272103250027e-03 3.0283983796834946e-02 -3.8206510245800018e-02 6.4200973138213158e-03 -2.3325249552726746e-02 -2.1193800494074821e-02 -2.8617700561881065e-02 -7.3614921420812607e-03 -3.7198573350906372e-02 2.6591220870614052e-02 -3.7568945437669754e-02 5.5504359304904938e-02 2.2804379463195801e-02 -9.9634320940822363e-04 2.8655417263507843e-02 2.5604384019970894e-02 -1.5023007988929749e-02 2.5185044854879379e-02 9.4545735046267509e-03 -4.3925847858190536e-02 3.1499441713094711e-02 4.2674046009778976e-02 8.6858822032809258e-03 -3.7820804864168167e-02 -4.2533244937658310e-02 3.9467729628086090e-02 -3.5855554044246674e-02 3.9671350270509720e-02 -2.4083735421299934e-02 2.2048186510801315e-02 -2.1965572610497475e-02 4.1152387857437134e-02 4.6058513224124908e-02 -4.5733395963907242e-02 3.1884595751762390e-02 -2.1278589963912964e-02 -1.1345880106091499e-02 2.7372429147362709e-02 2.0674278959631920e-02 -3.1974993646144867e-02 -3.2783661037683487e-02 -2.8465485200285912e-02 2.1267585456371307e-02 7.3631224222481251e-03 -8.2847066223621368e-03 4.7164191491901875e-03 -3.9839617908000946e-02 -2.0319879055023193e-02 1.3337323442101479e-02 -4.7043734230101109e-03 2.1715300157666206e-02 -3.9064940065145493e-02 1.1985755525529385e-02 -1.5639469027519226e-02 -1.2124383822083473e-02 -4.0258705615997314e-02 9.4403559342026711e-03 1.1025848798453808e-02 2.9796250164508820e-02 4.5904465019702911e-02 -2.2618709132075310e-02 9.7611211240291595e-03 2.2453533019870520e-03 -3.8458310067653656e-02 1.0056491009891033e-03 -3.3695712685585022e-02 2.3285565897822380e-02 3.8723193109035492e-02 -1.4132274314761162e-02 -2.4820981547236443e-02 -2.5215178728103638e-02 5.0731211900711060e-02 3.3162571489810944e-02 -2.0177621394395828e-02 3.3190064132213593e-02 1.0366699658334255e-02 -6.7179282195866108e-03 -3.8678124547004700e-02 2.6139961555600166e-02 4.3805977329611778e-03 3.3892933279275894e-02 -5.2719965577125549e-02 2.9041079804301262e-02 -2.0857825875282288e-02 -2.5509062688797712e-03 2.9589192941784859e-02 -2.5901556015014648e-02 2.9978143051266670e-02 -3.0523588880896568e-02 -4.6769529581069946e-02 5.7589869946241379e-02 -3.5155277699232101e-02 -1.9117010757327080e-02 1.3001219369471073e-02 2.6586443185806274e-02 -4.4308092445135117e-02 3.0250089243054390e-02 1.4583439566195011e-02 3.8576543331146240e-02 9.9981976673007011e-03 -2.5707233697175980e-02 9.3566812574863434e-03 -4.6689204871654510e-02 1.2267418205738068e-03 -4.0575113147497177e-02 -2.8923500794917345e-03 -2.8546629473567009e-02 -1.6812074929475784e-02 -2.0771309733390808e-02 1.3146808370947838e-02 1.1498053558170795e-02 4.4111412018537521e-02 3.5335879772901535e-02 7.8574689105153084e-03 4.5712129212915897e-03 1.3980782823637128e-03 -2.5628548115491867e-02 -1.0931523516774178e-02 -4.5978900045156479e-02 -4.7928277403116226e-02 -3.1215688213706017e-02 2.3889917880296707e-02 2.4992896243929863e-02 -8.1361737102270126e-03 4.1186958551406860e-02 3.1102092936635017e-02 3.9861850440502167e-02 -2.2272609174251556e-02 2.8888227418065071e-02 3.2562147825956345e-02 4.7760452143847942e-03 3.9455471560359001e-03 -6.0341149568557739e-02 8.4900623187422752e-03 -3.7015233188867569e-02 5.0400029867887497e-02 1.6009304672479630e-02 3.3087123185396194e-02 1.9640630111098289e-02 -4.7864828258752823e-02 -3.5612699575722218e-03 8.5972398519515991e-03 -3.0831880867481232e-02 -2.6204744353890419e-02 2.4185311049222946e-02 -3.8530748337507248e-02 1.7035907134413719e-02 4.4898439198732376e-02 -4.3300677090883255e-02 -2.7558645233511925e-02 2.2273059003055096e-03 -2.2071115672588348e-02 -4.9324940890073776e-02 -9.8890038207173347e-03 2.6026703417301178e-02 1.1518751271069050e-02 3.5518150776624680e-02 6.3413183670490980e-04 3.6788366734981537e-02 6.0111917555332184e-02 1.5887808054685593e-02 -1.4057858847081661e-02 -2.1903788670897484e-02 1.1396056972444057e-02 -6.9515923969447613e-03 -4.3465830385684967e-02 -5.3109903819859028e-03 -4.6937496517784894e-04 -4.2751301079988480e-02 -5.7389521971344948e-03 -5.1734503358602524e-02 -4.1071876883506775e-02 6.8571493029594421e-03 2.1278932690620422e-02 -3.3300919458270073e-03 -2.7502028271555901e-02 -3.2467457931488752e-03 6.8572866730391979e-03 1.7000341322273016e-03 5.2812661975622177e-02 3.7829447537660599e-02 7.8934822231531143e-03 4.3313312344253063e-03 5.5510895326733589e-03 6.3684638589620590e-03 3.0739506706595421e-02 -1.3508107513189316e-03 4.3245416134595871e-02 2.0105848088860512e-03 2.9833777807652950e-03 1.1840683408081532e-02 -2.1196577697992325e-02 2.2052804008126259e-02 8.2939881831407547e-03 -8.6512528359889984e-03 -2.6582635473459959e-03 2.1810602396726608e-02 -2.4842122569680214e-02 4.4582419097423553e-02 3.7088952958583832e-02 3.6024071276187897e-02 -3.0490400269627571e-02 2.9464892577379942e-03 -2.1838327869772911e-02 -8.6235458729788661e-04 1.9791226834058762e-02 2.9569869861006737e-02 1.2561550363898277e-02 -2.5534918531775475e-02 -3.2772362232208252e-02 -1.2830822728574276e-02 2.4139523506164551e-02 -4.4018711894750595e-02 1.1169490404427052e-02 -5.0205521285533905e-02 3.8792412728071213e-02 5.2329380996525288e-03 -3.4554360900074244e-03 -2.1570172160863876e-02 -1.4959756284952164e-02 3.2162252813577652e-02 2.4715015664696693e-02 5.7555135339498520e-02 -1.4500953257083893e-02 -6.6472212783992290e-03 -2.0986530929803848e-02 1.6338361427187920e-02 -3.3014283981174231e-03 1.5643836930394173e-02 -1.4955173246562481e-02 1.5157130546867847e-02 -5.1767624914646149e-02 9.2087844386696815e-03 4.5604016631841660e-02 -7.7976583270356059e-04 -1.8936036154627800e-02 4.4679496437311172e-02 4.2635947465896606e-02 -4.5441757887601852e-02 1.1458565481007099e-02 -1.7503961920738220e-02 -1.7959165852516890e-03 4.4451072812080383e-02 4.3646268546581268e-02 -6.9017275236546993e-03 -1.4855364337563515e-02 -2.5371139869093895e-02 6.4602228812873363e-03 -9.1105699539184570e-03 -2.1540341898798943e-02 -3.6309115588665009e-02 -1.8766786903142929e-02 -4.0648523718118668e-02 2.4748014286160469e-02 2.4613488465547562e-02 3.0891193076968193e-02 -1.8277889117598534e-02 -8.2496413961052895e-03 -4.8713753931224346e-03 -3.3100701868534088e-02 -1.8556891009211540e-02 -4.6180106699466705e-02 -1.3737069442868233e-02 -1.0766704566776752e-02 4.2777724564075470e-02 4.3765533715486526e-02 1.3769607990980148e-02 4.0653664618730545e-02 -3.0983282253146172e-02 -1.7377831041812897e-02 2.1681139245629311e-02 -3.5109791904687881e-02 -2.8828484937548637e-02 1.6475300071761012e-03 3.0215676873922348e-02 1.3896148651838303e-02 1.4061653986573219e-02 -1.4874735847115517e-02 -5.1889602094888687e-02 2.6006300002336502e-02 -5.1364384591579437e-02 1.5948053449392319e-02 -2.0738266408443451e-02 -3.8312405347824097e-02 2.7431726921349764e-03 3.5415209829807281e-02 -2.1779278758913279e-03 3.7796426564455032e-02 2.9023075476288795e-02 -1.2394898571074009e-02 -5.7962583377957344e-03 -3.8261387497186661e-02 7.8440066426992416e-03 4.1757252067327499e-02 3.4037537872791290e-02 7.9506589099764824e-03 3.8410477340221405e-02 -1.0223952122032642e-02 4.2983081191778183e-02 1.9418425858020782e-02 2.9552958905696869e-02 3.1768970191478729e-02 -4.2758278548717499e-02 2.7999214828014374e-02 -3.1684089452028275e-02 -7.5230626389384270e-03 5.0736531615257263e-02 3.7659700959920883e-02 -4.8979516141116619e-03 -2.2384742274880409e-02 2.3051876574754715e-02 8.2686645910143852e-03 -2.6709886267781258e-02 -1.4504174701869488e-02 4.2458154261112213e-02 -1.6652325168251991e-02 -2.0807983353734016e-02 4.8137918114662170e-02 3.8187850266695023e-02 -3.5798780154436827e-03 6.5542734228074551e-03 5.8781377971172333e-02 -4.9184404313564301e-02 -4.4406659901142120e-02 -2.9124129563570023e-02 2.2563744336366653e-02 -3.4135628491640091e-02 -2.4575619027018547e-02 -1.2922123074531555e-02 3.2112449407577515e-02 2.7322323992848396e-02 -8.7035195901989937e-03 -1.3670132495462894e-02 -2.2047840058803558e-02 -2.2738978266716003e-02 1.3645040802657604e-02 5.1767807453870773e-02 -2.1060375496745110e-02 -2.6754263788461685e-02 -4.7511331737041473e-02 1.1884666047990322e-02 -1.2952644377946854e-02 5.4704830050468445e-02 1.1443678522482514e-03 4.4334847480058670e-02 -2.3253429681062698e-02 2.0251453388482332e-03 -5.0324160605669022e-02 5.2253034664317966e-04 -3.8921676576137543e-02 3.5796757787466049e-02 -4.0545128285884857e-02 1.9025819376111031e-02 2.7143361512571573e-03 4.8633888363838196e-02 -1.9438806921243668e-02 4.0209356695413589e-02 -8.2261720672249794e-03 -2.0505409687757492e-02 -4.4518116861581802e-02 7.8030424192547798e-03 1.6884617507457733e-02 1.4457449316978455e-02 -1.6308447346091270e-02 -1.4110686257481575e-02 -1.9763411954045296e-02 -5.5126566439867020e-02 -2.6980709284543991e-02 -3.9640285074710846e-02 -3.1077479943633080e-02 2.4979831650853157e-02 -3.1664382666349411e-02 4.5043896883726120e-02 3.1276423484086990e-02 3.2582967542111874e-03 1.8381262198090553e-02 2.8159935027360916e-02 -2.6824442669749260e-02 4.7360494732856750e-02 1.9956885371357203e-03 3.9202276617288589e-02 4.9952156841754913e-03 5.6304126977920532e-02 -3.2669495791196823e-02 2.4715712293982506e-02 1.7503203824162483e-02 -5.3771724924445152e-03 6.8647257285192609e-04 1.6730007482692599e-03 -1.0826451703906059e-02 1.4136927202343941e-02 3.9781417697668076e-02 -2.0214533433318138e-02 -2.0811216905713081e-02 -1.9166840240359306e-02 -2.4950243532657623e-02 -4.6007856726646423e-02 3.3420521765947342e-02 -4.7802560031414032e-02 -4.2435705661773682e-02 -7.3539474979043007e-03 -1.7078360542654991e-02 -1.8709059804677963e-02 5.1744215190410614e-02 -1.0139212012290955e-02 -1.3946591876447201e-02 -4.8248309642076492e-02 -4.1995652019977570e-02 -2.8926341328769922e-03 -3.6238417029380798e-02 4.1159436106681824e-02 -4.4210057705640793e-02 1.2618195032700896e-03 4.9361377954483032e-02 -1.0017250664532185e-02 2.4647245183587074e-02 -1.9315389916300774e-02 2.8507802635431290e-02 1.9970342982560396e-03 7.0503316819667816e-03 1.6040949150919914e-02 -4.3723043054342270e-02 3.3098451793193817e-02 3.2272595912218094e-02 -3.4504763782024384e-02 7.7597745694220066e-03 -3.8055365439504385e-03 -4.8813734203577042e-02 4.7655478119850159e-02 1.7849985510110855e-02 -4.9562617205083370e-03 3.4127525985240936e-02 -6.7174201831221581e-03 -3.3846069127321243e-02 -2.2651819512248039e-02 -4.0624219924211502e-02 6.7056268453598022e-03 2.3639660794287920e-03 -1.0029138065874577e-02 2.0852860063314438e-02 -3.7133648991584778e-02 1.1133668944239616e-02 -2.6353595778346062e-02 -1.1233502067625523e-02 3.4037198871374130e-02 2.1559657528996468e-02 -5.2870634943246841e-02 2.2727809846401215e-02 1.2240273877978325e-02 -3.2752543687820435e-02 -1.3220130465924740e-02 -2.0985628943890333e-03 2.7669917792081833e-02 -2.7563745155930519e-02 -2.6670582592487335e-02 -6.2456340529024601e-03 -3.4267131239175797e-02 -4.2512416839599609e-02 3.0634302645921707e-02 -2.1592469885945320e-02 -2.1828688681125641e-02 -2.2748196497559547e-02 4.8705074004828930e-04 -4.3035797774791718e-02 -7.4184257537126541e-03 1.9716233015060425e-02 1.4826238155364990e-02 2.7434810996055603e-02 -3.1128605827689171e-02 4.4299885630607605e-02 1.4849807135760784e-02 3.8639858365058899e-02 3.4695837646722794e-02 4.4434651732444763e-02 -1.6177183017134666e-02 -2.3430289700627327e-02 1.8375286832451820e-02 -3.4748069010674953e-03 -3.1207703053951263e-02 2.4214256554841995e-02 4.8769436776638031e-02 -8.2388557493686676e-03 -3.6665458232164383e-02 1.2627772986888885e-02 1.2333045713603497e-02 -3.3488571643829346e-02 -5.0097308121621609e-04 -4.7837734222412109e-02 -2.4978042347356677e-04 3.8992010056972504e-02 -3.6345683038234711e-02 -8.2259355112910271e-03 -1.4690870419144630e-02 2.1908530965447426e-02 -3.2674383372068405e-02 -2.0214669406414032e-02 1.8567880615592003e-02 2.2596437484025955e-02 2.5991529226303101e-02 1.4228743501007557e-02 -3.8983307778835297e-02 -1.3327389024198055e-02 -5.3719510324299335e-03 -2.8214093763381243e-03 1.6577631235122681e-02 9.5964837819337845e-03 -1.0423386469483376e-02 -2.5981195271015167e-02 3.5899352282285690e-02 1.2507918290793896e-03 1.8434409052133560e-02 -3.2069487497210503e-03 9.9115520715713501e-03 -2.9317114502191544e-02 -4.2381238192319870e-02 4.4497650116682053e-02 3.0167594552040100e-02 1.4633734710514545e-02 5.7269304990768433e-02 -5.1812198013067245e-02 8.3519518375396729e-03 -1.8176728859543800e-02 -1.0604782728478312e-03 -2.7756707742810249e-02 -7.0385793223977089e-03 1.2321553193032742e-02 3.8278013467788696e-02 -8.7945647537708282e-03 2.1005675196647644e-02 3.6530572921037674e-02 -1.6338251531124115e-02 -4.6796616166830063e-02 -2.4811282753944397e-02 -1.6559025272727013e-02 2.6371516287326813e-02 4.5976288616657257e-02 -1.8541488796472549e-02 -1.0825214907526970e-02 -1.1316762305796146e-02 -1.7235981067642570e-03 5.6015294976532459e-03 -1.6843752935528755e-02 5.7266388088464737e-02 -3.2360199838876724e-02 5.0883889198303223e-02 8.0101154744625092e-03 -2.0327094942331314e-02 -4.5028656721115112e-02 -3.1613744795322418e-02 -1.9513512030243874e-02 2.4072241038084030e-02 5.2676018327474594e-02 -5.1252134144306183e-02 -3.8212239742279053e-02 4.9357943236827850e-02 -6.3713085837662220e-03 -5.2270215004682541e-02 2.0047746598720551e-02 4.2119272053241730e-02 -4.1333220899105072e-02 2.7632301673293114e-02 3.5474140197038651e-02 2.4478541687130928e-02 2.4188738316297531e-02 -1.3238901272416115e-02 -4.1489999741315842e-02 -3.2978743314743042e-02 5.0942849367856979e-02 -1.3464718125760555e-02 2.4159476161003113e-02 -6.6393790766596794e-03 -2.8547564521431923e-02 -3.4818973392248154e-02 1.5346433036029339e-02 -1.7394909635186195e-02 3.2255455851554871e-02 2.7532370761036873e-02 -3.7701729685068130e-02 -6.4000368118286133e-02 4.3730393052101135e-02 -6.5567209385335445e-03 4.2774029076099396e-02 3.4115996211767197e-02 7.2116875089704990e-03 -2.7428640052676201e-02 1.8901539966464043e-02 -2.8213366866111755e-02 9.0125342831015587e-03 1.7561830580234528e-02 1.9965911284089088e-02 -2.4375407025218010e-02 -8.4668448835145682e-05 -3.4402828663587570e-02 1.6144379042088985e-03 1.3826261274516582e-02 -1.4771437272429466e-02 -9.9530564621090889e-03 1.7634728923439980e-02 2.4177646264433861e-02 -8.7299179285764694e-03 8.0189080908894539e-03 -1.8411364406347275e-02 -2.7838718146085739e-02 3.4553930163383484e-02 -9.5586534589529037e-03 3.1331356614828110e-02 1.8032252788543701e-02 -8.5771568119525909e-03 -4.0708236396312714e-02 -1.0304523631930351e-02 -1.4169398695230484e-02 -3.5232774913311005e-02 1.7443619668483734e-02 -5.5582448840141296e-02 -4.3483986519277096e-03 -4.1939616203308105e-02 -2.8928754851222038e-02 3.4082874190062284e-03 -2.8486445546150208e-02 -1.4103641733527184e-02 -2.1710526198148727e-02 1.1968349106609821e-02 5.5962433107197285e-03 -1.6711197793483734e-02 1.7129760235548019e-02 -3.8675714284181595e-02 2.7021735906600952e-02 -3.8549015298485756e-03 1.9828017801046371e-02 -4.0426239371299744e-02 -2.8014525771141052e-02 3.3265847712755203e-02 4.1879318654537201e-02 7.1482225321233273e-03 -1.4356898143887520e-02 -4.2435750365257263e-02 -2.9889116063714027e-02 -6.6151097416877747e-03 3.4238241612911224e-02 3.4148439764976501e-02 -1.8945062533020973e-02 -4.1118259541690350e-03 -1.1440082453191280e-02 1.6503795981407166e-02 3.3774352632462978e-03 1.6279170289635658e-02 -3.5295221954584122e-02 -1.7739988863468170e-02 -3.2978855073451996e-02 3.2185405492782593e-02 -1.6558557748794556e-02 3.1908974051475525e-02 5.3415056318044662e-02 -2.3715546354651451e-02 -1.9789401441812515e-02 -2.7604885399341583e-02 -5.2225487306714058e-03 5.1605333574116230e-03 2.0526509732007980e-02 3.0270397663116455e-02 1.2806064449250698e-02 -3.4646674990653992e-02 -1.6405887436121702e-03 3.2918360084295273e-02 -2.5185020640492439e-02 -4.8037264496088028e-03 -1.4413177967071533e-02 -6.8470635451376438e-03 4.8893511295318604e-02 2.5959143415093422e-02 -3.6606697831302881e-03 6.3664214685559273e-03 -1.3057146221399307e-02 -4.0429361164569855e-02 -3.7446677684783936e-02 -2.5062158703804016e-02 2.9933664947748184e-02 -3.5414457321166992e-02 -2.1800190210342407e-02 1.9415210932493210e-02 -5.6166552007198334e-02 -1.0860679671168327e-02 -2.5185626000165939e-02 -4.4172063469886780e-02 -1.1608862318098545e-02 -3.0027711763978004e-02 4.3391209095716476e-02 -5.2820917218923569e-02 2.2179190069437027e-02 3.7063255906105042e-02 3.5116486251354218e-02 1.5321458689868450e-02 2.5948498398065567e-02 -2.8921063989400864e-02 4.4265814125537872e-02 1.2208975851535797e-02 -2.8346996754407883e-02 2.1315483376383781e-02 3.5515779163688421e-03 -1.1050386819988489e-03 1.5537789091467857e-02 5.3906445391476154e-03 -2.4633284658193588e-02 2.8562720865011215e-02 -3.4634493291378021e-02 5.9526551514863968e-02 4.1589535772800446e-02 7.9596647992730141e-03 -2.4958052672445774e-03 -4.5582763850688934e-02 -7.7813332900404930e-03 5.2539281547069550e-02 4.4460962526500225e-03 3.2232269644737244e-02 -3.0774885788559914e-02 2.8427250683307648e-02 -2.5606757029891014e-02 2.3421550169587135e-02 4.1615843772888184e-02 3.3985700458288193e-02 2.4558709934353828e-02 -3.0707417055964470e-02 8.3564931992441416e-04 2.1190632134675980e-02 2.5087654590606689e-02 -1.7350248992443085e-02 5.9331767261028290e-02 -5.0987601280212402e-03 3.4634992480278015e-02 6.8461857736110687e-02 -5.6822858750820160e-02 -6.8373405374586582e-03 -4.3045472353696823e-02 8.8726654648780823e-03 -3.0522800981998444e-02 1.1662109754979610e-02 -4.1277617216110229e-02 1.3954658061265945e-02 5.8135013096034527e-03 2.0908461883664131e-03 -2.0289815962314606e-02 4.6758010983467102e-02 -2.4268690496683121e-02 2.3894263431429863e-02 -3.9283342659473419e-02 5.6786254048347473e-02 2.5792717933654785e-02 1.4887250028550625e-02 -2.0178863778710365e-02 7.8515317291021347e-03 -3.7953034043312073e-02 -1.7278173938393593e-02 -3.9209004491567612e-02 3.4543484449386597e-02 -5.2719805389642715e-03 2.8757020831108093e-02 -1.5308914706110954e-02 2.1010300144553185e-02 -1.7761338502168655e-02 5.0645604729652405e-02 -4.1119791567325592e-02 2.3150097113102674e-03 7.3640220798552036e-03 3.2855547964572906e-02 3.4944161772727966e-02 8.3420984447002411e-03 4.0890108793973923e-03 2.5504590943455696e-02 -1.5952877700328827e-02 -3.3822465687990189e-02 -3.0980035080574453e-04 2.8863565996289253e-02 3.2052353024482727e-02 -4.0905427187681198e-02 4.2055465281009674e-02 -3.4649848937988281e-02 -1.4288973063230515e-02 1.0283372364938259e-02 -1.9895359873771667e-02 -1.3355017872527242e-03 -5.3513632155954838e-03 -4.2627375572919846e-02 -4.0835451334714890e-02 3.7907186895608902e-02 1.4617672190070152e-02 5.1085639744997025e-02 -2.7932137250900269e-02 -1.1480710469186306e-02 -1.4624562114477158e-02 7.9339370131492615e-03 9.5507716760039330e-03 3.1332259532064199e-03 -2.9449788853526115e-02 -1.1997524648904800e-02 -5.0807103514671326e-02 -1.2613136321306229e-02 2.9372356948442757e-04 -5.1675163209438324e-02 3.8301795721054077e-02 -2.7972547337412834e-02 3.0251791700720787e-02 4.6936821192502975e-02 2.4288214743137360e-02 3.9602719247341156e-02 1.9273994490504265e-02 4.7471705824136734e-02 3.6103766411542892e-02 1.5051711350679398e-02 2.1292602643370628e-02 7.7254156349226832e-04 1.5289128758013248e-02 4.7248687595129013e-02 2.6798820123076439e-02 2.4703027680516243e-02 1.4579262584447861e-02 5.1718489266932011e-03 3.5612385720014572e-02 3.0895225703716278e-02 4.8661936074495316e-02 -2.9562911018729210e-02 3.4483119845390320e-02 -1.5781877562403679e-02 -3.2628212124109268e-02 -1.8234582617878914e-02 -4.5664906501770020e-02 1.0192256420850754e-02 -1.5384030528366566e-02 -2.1544167771935463e-02 -3.2349046319723129e-02 -8.3940289914608002e-03 -2.7408005669713020e-02 -1.6036048531532288e-02 5.1726743578910828e-02 -8.0629149451851845e-03 -4.7174440696835518e-03 8.8769951835274696e-03 3.0166301876306534e-02 4.7564975917339325e-02 -1.5593511983752251e-02 -3.0360056087374687e-02 5.0689722411334515e-03 -2.4519929662346840e-02 -5.2369289100170135e-02 3.4878514707088470e-02 -2.5202797260135412e-03 1.2490497902035713e-02 -4.2827706784009933e-03 2.1384444087743759e-02 -4.0128353983163834e-02 4.6041175723075867e-02 -2.5676324963569641e-02 -4.4487413018941879e-02 -4.5908231288194656e-02 -2.6398925110697746e-02 -4.5715861022472382e-02 5.1959943026304245e-02 2.0175669342279434e-02 -3.4909941256046295e-02 2.3745762184262276e-02 2.3175673559308052e-02 -2.9897088184952736e-02 1.6164548695087433e-02 3.2470054924488068e-02 3.1069438904523849e-02 -2.2727094590663910e-02 2.3472947068512440e-03 4.7931097447872162e-02 -4.8320285975933075e-02 5.4761029779911041e-02 -3.4735645167529583e-03 3.9394844323396683e-02 -1.2033470906317234e-02 -4.9356918781995773e-02 -1.5348181128501892e-02 3.7884980440139771e-02 2.4232737720012665e-02 2.8027666732668877e-02 -6.8328775465488434e-02 -4.4137194752693176e-02 4.2072627693414688e-03 4.3811928480863571e-02 -1.9731013104319572e-02 -2.5400375947356224e-02 3.4215200692415237e-02 3.6505468189716339e-02 8.0629382282495499e-03 -1.7380235716700554e-02 2.6637528091669083e-02 4.7609223984181881e-03 4.0512494742870331e-02 2.1267443895339966e-02 -2.1240128204226494e-02 3.8389634341001511e-02 -1.7483336851000786e-02 2.5161968544125557e-02 -3.4003019332885742e-02 5.8384933508932590e-03 6.0159601271152496e-03 -8.3867292851209641e-03 1.3166164048016071e-02 -3.2087892293930054e-02 -3.8181446492671967e-02 -5.1874727010726929e-02 -3.0548926442861557e-02 3.6268379539251328e-02 3.7261210381984711e-03 -3.0669594183564186e-02 -4.0551282465457916e-02 -3.3570159226655960e-02 -3.9581242948770523e-02 -4.6723812818527222e-02 -4.0714871138334274e-02 -3.6479860544204712e-02 -5.8475108817219734e-03 -1.0395844466984272e-02 4.4993966817855835e-02 -7.9564061015844345e-03 -2.1148918196558952e-02 -3.7910133600234985e-02 -9.7197331488132477e-03 2.7351226657629013e-02 2.9942248016595840e-02 -1.0276461020112038e-02 1.1026273481547832e-02 -3.7856940180063248e-02 -9.9041089415550232e-03 -2.8628602623939514e-02 4.8316769301891327e-02 2.4934209883213043e-02 -1.7984507605433464e-02 -2.4556525051593781e-02 -1.1606150306761265e-02 2.6465371251106262e-02 2.1441845223307610e-02 -2.4515211582183838e-02 2.0748155191540718e-02 -3.5123135894536972e-02 -4.5577961951494217e-02 1.2232397682964802e-02 -4.0998265147209167e-02 -2.9017942026257515e-02 3.8804031908512115e-02 1.2410421855747700e-02 -9.5049524679780006e-03 1.7062664031982422e-02 -2.6896061375737190e-02 -2.3047540336847305e-02 5.5050630122423172e-02 2.5866208598017693e-02 -5.2787944674491882e-02 2.8356486931443214e-02 -3.5552845802158117e-03 -2.0184744149446487e-02 3.1439522281289101e-03 2.9089519754052162e-02 -3.3092223107814789e-02 1.8454859033226967e-02 -5.2257023751735687e-02 -4.4382490217685699e-02 -4.4589906930923462e-02 5.0158750265836716e-02 -3.8038466125726700e-02 1.8532745540142059e-02 2.7994709089398384e-02 -5.0001149065792561e-03 4.2261574417352676e-02 -2.9018919914960861e-02 -3.6383487284183502e-02 2.1921312436461449e-02 -3.7323996424674988e-02 -4.5642979443073273e-02 -1.7710316926240921e-02 4.4327251613140106e-02 -4.5932114124298096e-02 1.3859597034752369e-02 1.5819767722859979e-03 -1.1232991702854633e-02 6.2898546457290649e-03 5.2267678081989288e-02 1.4608540572226048e-02 1.7396198585629463e-02 2.0843852311372757e-02 -2.2235162556171417e-02 -4.5539746060967445e-03 -2.7646804228425026e-02 3.1793691217899323e-02 3.7526182830333710e-02 -2.5363577529788017e-02 -2.1247906610369682e-02 -1.4057679101824760e-02 -1.3763109222054482e-02 -1.6604499891400337e-02 -1.2519499287009239e-03 -2.2724043577909470e-02 -3.6275409162044525e-02 -2.5391399860382080e-02 3.0411083251237869e-02 -3.2728114165365696e-03 -4.0686454623937607e-02 2.6300506666302681e-02 2.9907470569014549e-02 9.4071170315146446e-03 4.6711079776287079e-02 -1.7716359347105026e-02 1.9937895238399506e-02 -9.8747666925191879e-03 3.8655083626508713e-02 2.0816980395466089e-03 -1.4913183636963367e-02 2.0138742402195930e-02 3.9109796285629272e-02 4.2614761739969254e-02 -3.7345830351114273e-02 8.4306057542562485e-03 1.7618214711546898e-02 1.7043339088559151e-02 -4.2248889803886414e-02 4.5331437140703201e-02 -4.2570013552904129e-02 4.9614170566201210e-03 -1.5862487256526947e-02 1.6317555680871010e-02 -3.3098179847002029e-02 1.8727770075201988e-03 8.9793326333165169e-03 -4.3538659811019897e-02 -1.1615238152444363e-02 5.2526663988828659e-02 1.9870741292834282e-02 -4.9976902082562447e-03 4.5215908437967300e-02 -3.6252517253160477e-02 -5.8183688670396805e-03 -3.8271259516477585e-02 1.8827412277460098e-02 1.9541788846254349e-02 4.5810703188180923e-02 4.1268084198236465e-02 1.4249125961214304e-03 -3.8111228495836258e-02 2.0458389073610306e-02 2.4717034772038460e-02 -3.3186297863721848e-02 7.2247870266437531e-03 1.2762689962983131e-02 3.3142790198326111e-02 -3.2088968902826309e-02 2.0099611952900887e-02 -3.0572850257158279e-02 3.1143426895141602e-02 -1.3913469389081001e-02 2.1515788510441780e-02 -2.8214940801262856e-02 -5.1042221486568451e-02 -1.9817583262920380e-02 3.4148145467042923e-02 2.4907525628805161e-02 1.2008151039481163e-02 -3.8297045975923538e-02 -3.6756061017513275e-02 3.3899292349815369e-02 1.2088245712220669e-02 -1.8208172172307968e-02 -1.0850993916392326e-02 4.9168385565280914e-02 2.5406982749700546e-02 -3.4939669072628021e-02 8.9510744437575340e-03 2.9734305571764708e-03 -1.0445821098983288e-02 -3.8092657923698425e-02 3.0754139646887779e-02 1.3714067637920380e-02 -2.3413008078932762e-02 2.6939352974295616e-03 5.1520213484764099e-02 -4.2196176946163177e-02 3.4193873405456543e-02 3.5922750830650330e-03 -3.3417247235774994e-02 -4.6055987477302551e-03 -2.2191267460584641e-02 -2.2624835371971130e-02 -3.5986445844173431e-02 1.9477128982543945e-02 3.4695126116275787e-02 -2.4445701390504837e-02 4.3758109211921692e-02 -1.6536211594939232e-02 3.7983283400535583e-02 -2.6554854586720467e-02 4.4631171040236950e-03 -9.6889818087220192e-03 1.5894154086709023e-02 4.1388232260942459e-02 -3.1202306970953941e-02 5.2214335650205612e-02 -1.9087582826614380e-02 2.9548378661274910e-02 4.4005557894706726e-02 2.9185567051172256e-02 5.1658727228641510e-02 4.5356750488281250e-02 -1.4888729900121689e-02 4.3337874114513397e-02 -3.4012965857982635e-02 3.6384824663400650e-02 4.5859063975512981e-03 5.3566068410873413e-02 2.4764945730566978e-02 1.4164459425956011e-03 -4.4051732867956161e-02 3.9939224720001221e-02 -1.4004772529006004e-02 -1.9568841904401779e-02 -5.2354004234075546e-02 -4.2686715722084045e-02 3.6718785762786865e-02 4.4625081121921539e-02 -5.0200369209051132e-02 3.1280286610126495e-02 -3.2087378203868866e-02 3.6999367177486420e-02 -7.8959502279758453e-03 4.8793822526931763e-02 -1.5583912841975689e-02 3.1787626445293427e-02 2.6194427162408829e-02 3.8731072098016739e-02 5.4254509508609772e-02 -2.5141576305031776e-02 3.1771764159202576e-02 4.0238410234451294e-02 -3.5803388804197311e-02 -4.4138287194073200e-03 2.0674739032983780e-02 -3.2886616885662079e-02 4.2825065553188324e-02 -3.8882598280906677e-02 4.1945427656173706e-03 -1.9505497068166733e-02 4.5737493783235550e-02 3.8358848541975021e-02 3.8453821092844009e-02 -1.5794314444065094e-02 -3.2287236303091049e-02 -5.4771613329648972e-02 -2.1117166616022587e-03 3.3613104373216629e-02 1.7222793772816658e-02 1.8695428967475891e-02 -4.1860446333885193e-02 3.3917449414730072e-02 2.1818326786160469e-02 1.0144101455807686e-02 4.5749247074127197e-02 -4.9756776541471481e-02 1.4465360902249813e-02 -3.5940450616180897e-03 8.1933876499533653e-03 2.5035368744283915e-03 -3.5533018410205841e-02 -1.5446253120899200e-02 -3.8248036056756973e-02 5.0033368170261383e-02 -1.3752619735896587e-02 1.8118591979146004e-02 -2.6214564219117165e-02 2.2993132472038269e-02 1.9851863384246826e-02 -3.2870091497898102e-02 -8.0610299482941628e-03 -1.5535864047706127e-02 3.8820862770080566e-02 3.6995816975831985e-02 2.6363149285316467e-02 4.0713168680667877e-02 1.6689039766788483e-02 3.7435252219438553e-02 1.4955085702240467e-02 -4.0281124413013458e-02 -4.7242969274520874e-02 -3.8788236677646637e-02 -1.0409366339445114e-02 4.4351391494274139e-02 -3.0893336981534958e-02 -5.7817194610834122e-02 3.5194847732782364e-02 3.8161914795637131e-02 5.7042207568883896e-02 -2.0623924210667610e-02 1.9242869690060616e-02 4.3065961450338364e-02 1.4435335993766785e-02 -1.8362499773502350e-02 1.8069975078105927e-02 -7.7266017906367779e-03 -1.6074543818831444e-02 6.7353611811995506e-03 -3.1175561249256134e-02 5.6730378419160843e-03 3.2943785190582275e-02 -2.6200354099273682e-02 5.3471911698579788e-02 1.0395924618933350e-04 3.7373341619968414e-02 1.3916277093812823e-03 3.1786601990461349e-02 3.7012327462434769e-02 4.0826711803674698e-02 2.4075234308838844e-02 3.8158729672431946e-02 -2.3340569809079170e-02 4.4361043721437454e-02 -2.4903982877731323e-02 -3.7713162600994110e-02 4.4810380786657333e-02 -4.5053407549858093e-02 -2.9516883194446564e-02 -1.6964534297585487e-02 -3.9301313459873199e-02 2.6124471798539162e-02 -2.7590211480855942e-02 -1.3438902795314789e-02 1.2524372898042202e-02 -2.1697385236620903e-02 1.0875314474105835e-02 1.7036471515893936e-02 1.5198374167084694e-02 2.2986110299825668e-02 -8.3641298115253448e-03 4.4132757931947708e-02 9.4278622418642044e-03 2.3490678519010544e-02 2.9954779893159866e-02 5.1109988242387772e-02 5.0229453481733799e-03 -3.7279345095157623e-02 -3.1132917851209641e-02 2.1589854732155800e-02 -2.5190515443682671e-02 -4.0627233684062958e-03 2.5305358693003654e-02 -4.6193689107894897e-02 1.5642514452338219e-02 -4.7021567821502686e-02 2.4435754865407944e-02 3.6487866193056107e-02 3.7517491728067398e-02 -1.3388959690928459e-02 9.2546697705984116e-03 -2.0758870989084244e-02 -6.4851650968194008e-03 3.6538723856210709e-02 -1.2766956351697445e-03 -4.2873568832874298e-02 -4.8644427210092545e-02 1.5688899904489517e-02 2.7191311120986938e-02 4.5599855482578278e-02 -3.3588446676731110e-02 -4.1399303823709488e-02 -8.3706313744187355e-03 -4.4769059866666794e-02 4.3030250817537308e-02 1.3207134790718555e-02 4.0113594383001328e-02 3.5540428012609482e-02 -2.4833250790834427e-02 -8.1314155831933022e-03 -1.0497171431779861e-02 1.4220322482287884e-02 1.8432850018143654e-02 3.0810695141553879e-02 -1.2433236464858055e-02 -4.1057810187339783e-02 3.1367104500532150e-02 3.0318615958094597e-02 5.5094347335398197e-03 -7.6570262899622321e-04 1.2497082352638245e-02 1.5703896060585976e-02 -1.3111921958625317e-02 3.8891658186912537e-02 -2.3687273263931274e-02 4.1990750469267368e-03 -7.0163124473765492e-04 -3.3619914203882217e-02 6.1740864068269730e-02 -2.2176502272486687e-02 -3.1420756131410599e-02 4.0057014673948288e-02 1.2569009326398373e-02 -1.7814341932535172e-02 3.7845522165298462e-02 -2.1668359637260437e-02 4.3444588780403137e-02 1.1173013597726822e-02 -2.8670325875282288e-02 4.3820261955261230e-02 -5.5315592326223850e-03 -1.0641562752425671e-02 -3.5531062632799149e-02 -3.1562600284814835e-02 4.3983615934848785e-02 -1.8949098885059357e-02 -3.7839870899915695e-02 -3.9732329547405243e-02 -4.0280371904373169e-02 4.2539868503808975e-02 -3.1879048794507980e-02 -9.1823879629373550e-03 4.8206590116024017e-02 2.5429390370845795e-03 5.2251894026994705e-02 4.1221939027309418e-02 -3.1499817967414856e-02 8.0463802441954613e-03 1.5127568505704403e-02 3.9718750864267349e-02 2.4087859317660332e-02 -1.4382815919816494e-02 2.4882832542061806e-02 5.7873029261827469e-02 -3.4141030162572861e-02 4.2019996792078018e-02 2.2198827937245369e-03 3.3645272254943848e-02 -4.1525907814502716e-02 -7.3110056109726429e-03 3.1636230647563934e-02 -1.2411992065608501e-02 -4.7140825539827347e-02 2.6418752968311310e-02 3.0913360416889191e-02 -2.9351886361837387e-02 5.3116003982722759e-03 6.6647711209952831e-03 7.9878987744450569e-03 -3.9032857865095139e-02 -1.9832139369100332e-03 5.2721789106726646e-03 -1.4733868651092052e-02 2.9685778543353081e-02 9.5494026318192482e-03 3.3117663115262985e-02 -1.1388583108782768e-02 -1.3076267205178738e-02 -1.2851496227085590e-02 -4.1324708610773087e-02 -2.4757599458098412e-02 -4.4480536133050919e-02 1.4135075733065605e-02 3.4761846065521240e-02 2.8003035113215446e-02 3.8459982722997665e-02 4.6447925269603729e-02 2.0759202539920807e-02 -4.4235712266527116e-04 -4.1720975190401077e-02 3.0080532655119896e-02 -2.3039268329739571e-02 1.5143116004765034e-02 -1.1592275463044643e-02 3.8661822676658630e-02 -2.7350470423698425e-02 -3.7383340299129486e-02 2.6423199102282524e-02 -5.9924433007836342e-03 -1.2949991971254349e-02 -4.2136602103710175e-02 3.9634633809328079e-02 4.9199733883142471e-02 2.6764094829559326e-02 1.0445158928632736e-02 -3.0411342158913612e-02 -1.2305070646107197e-02 5.4799979552626610e-03 -6.5836026333272457e-03 -4.8732228577136993e-02 -1.0326810181140900e-02 4.2637996375560760e-03 4.6539425849914551e-02 -3.8799860049039125e-03 4.7806277871131897e-02 -2.7433218434453011e-02 1.9064379855990410e-02 -3.1590096652507782e-02 -5.0040677189826965e-02 -2.0103636197745800e-03 -3.9442930370569229e-02 -5.9635166078805923e-02 -4.2405365966260433e-03 -1.3635689392685890e-02 2.4773484095931053e-02 -4.1472166776657104e-02 8.6278328672051430e-03 3.8980465382337570e-02 -4.3703291565179825e-02 -2.5229234248399734e-02 -1.6385762020945549e-02 -2.8464661911129951e-02 2.9540760442614555e-02 -2.4616621434688568e-02 -2.0031925290822983e-02 -2.8727028518915176e-02 -3.3930256962776184e-02 -3.0503224115818739e-03 3.9982993155717850e-02 -3.7479884922504425e-02 -3.0738873407244682e-02 -2.6457052677869797e-02 -3.2069813460111618e-02 3.7664100527763367e-02 3.2418452203273773e-02 -6.1107804067432880e-03 -3.8092579692602158e-02 2.4192225188016891e-02 -3.9329376071691513e-02 -3.8277581334114075e-02 -2.7019493281841278e-02 4.4881738722324371e-02 -4.4149909168481827e-02 -2.7738500386476517e-02 1.2103181332349777e-02 -3.6121338605880737e-02 2.0465385168790817e-02 1.6913682222366333e-02 -6.8759606219828129e-03 -2.7862794231623411e-03 -4.2424969375133514e-02 -5.5987507104873657e-02 3.0141351744532585e-02 4.3050229549407959e-02 -2.4864155799150467e-02 -3.5703256726264954e-03 2.6649800129234791e-03 3.2606922090053558e-02 1.8439596518874168e-02 -4.8328962177038193e-02 -1.3929708860814571e-02 2.9435541480779648e-02 3.9456207305192947e-02 3.3333487808704376e-02 3.2652601599693298e-02 -4.4308170676231384e-02 -6.8669789470732212e-03 -2.0359627902507782e-02 2.2038294002413750e-02 5.2941575646400452e-02 -1.7715474590659142e-02 3.4151148051023483e-02 -4.6221688389778137e-03 1.4835845679044724e-02 2.9798949137330055e-02 1.1020024307072163e-02 -1.2035785242915154e-02 -2.0964760333299637e-02 3.5710968077182770e-02 -4.2204260826110840e-02 2.9428538400679827e-03 6.5181754529476166e-02 -1.6159042716026306e-02 3.7204645574092865e-02 3.0475731473416090e-03 2.4525018408894539e-02 3.5766769200563431e-02 6.0825739055871964e-03 4.0645390748977661e-02 -2.4655308574438095e-02 2.0141804590821266e-02 -1.9721688702702522e-02 3.0327422544360161e-02 2.5628402829170227e-02 -3.8438062183558941e-03 -5.3751867264509201e-02 -6.8934238515794277e-04 -8.6873248219490051e-03 9.1864140704274178e-03 -5.4422481916844845e-03 -1.8553934991359711e-02 -3.5580053925514221e-02 -4.7393780201673508e-02 -5.9186741709709167e-02 3.7035811692476273e-02 -4.3421071022748947e-03 6.5024360083043575e-03 -2.8962716460227966e-02 -4.4686168432235718e-02 -1.5208554454147816e-02 1.4665415510535240e-02 -1.4517934061586857e-02 -1.5095884911715984e-02 -3.1003290787339211e-02 -4.2885225266218185e-02 3.6838382482528687e-02 -2.7964215725660324e-02 4.1173022240400314e-02 2.8830155730247498e-02 3.7537276744842529e-02 4.7509662806987762e-02 4.0047448128461838e-02 -3.6586917936801910e-02 4.8268288373947144e-03 4.0252685546875000e-02 2.6855312287807465e-02 9.4872210174798965e-03 -2.0200749859213829e-02 -5.0476517528295517e-02 -1.6396345570683479e-02 -2.9069481417536736e-02 -3.0752480030059814e-02 -3.8147885352373123e-02 3.6610417068004608e-02 -9.4152083620429039e-03 -2.7920449152588844e-02 1.0887310840189457e-02 3.3391837030649185e-02 -3.4082077443599701e-02 -5.1848113071173429e-04 2.5645464658737183e-02 2.2058172151446342e-02 4.6645570546388626e-04 -2.7282914146780968e-02 2.6018256321549416e-02 4.8140626400709152e-02 -2.5713846087455750e-02 1.2131380848586559e-02 -4.5560572296380997e-02 3.8115777075290680e-02 2.2163633257150650e-02 2.7326866984367371e-02 3.3598270267248154e-02 -3.3630330115556717e-02 2.5745375081896782e-02 -2.9611263424158096e-02 -3.2352052628993988e-02 3.4327425062656403e-02 -5.1096763461828232e-02 2.3560415953397751e-02 -7.3306020349264145e-03 -7.8468034043908119e-03 3.0173296108841896e-03 -1.0616395622491837e-02 1.6656287014484406e-02 1.6185926273465157e-02 1.9144982099533081e-02 2.6198266074061394e-02 1.2381071224808693e-02 1.3015568256378174e-02 2.2662403061985970e-03 -3.8916695863008499e-02 2.2199755534529686e-02 1.7251200973987579e-02 -4.1981332004070282e-02 -2.9563710093498230e-02 2.9308566823601723e-02 5.0653745420277119e-03 -4.8200570046901703e-02 -2.8594268485903740e-02 -5.2673801779747009e-02 3.9987143129110336e-02 -4.3209832161664963e-02 -1.4063542708754539e-02 -3.5480327904224396e-02 3.1734883785247803e-02 3.9277661591768265e-02 3.9373550564050674e-02 -4.8281140625476837e-02 8.1829670816659927e-03 4.0743697434663773e-02 -3.7465069442987442e-02 3.6589931696653366e-02 -3.0719688162207603e-02 -4.0228996425867081e-02 2.1048033609986305e-02 5.0151504576206207e-02 2.2879553958773613e-02 -4.3982010334730148e-02 -2.8927985578775406e-02 6.6804811358451843e-03 5.0449132919311523e-02 -3.3663801848888397e-02 4.6560242772102356e-02 -2.0781142637133598e-02 4.3509539216756821e-02 1.3444074429571629e-03 -5.5278591811656952e-02 2.3797128349542618e-02 2.0288087427616119e-02 -1.8646977841854095e-02 -6.6904220730066299e-03 2.9932122677564621e-02 1.5739489346742630e-02 -3.0110759660601616e-02 2.2685956209897995e-02 2.1387323737144470e-02 -1.5774244442582130e-02 -2.5026725605130196e-02 -5.2087944932281971e-03 -5.7666362263262272e-03 2.6211967691779137e-02 1.7113516107201576e-02 -2.5788722559809685e-03 4.5888286083936691e-02 3.3575901761651039e-03 -4.0617894381284714e-02 1.7316034063696861e-02 2.9859291389584541e-02 -4.2232848703861237e-02 5.2959077060222626e-02 2.9628662392497063e-02 6.4151979982852936e-02 -2.4609746411442757e-02 3.4171901643276215e-02 -8.0896466970443726e-03 5.1280658692121506e-02 -4.1108615696430206e-02 2.5685405358672142e-02 -7.1186996065080166e-03 3.6008298397064209e-02 3.8425732403993607e-02 1.5656173229217529e-02 1.3521493412554264e-02 -4.1587911546230316e-02 3.8801643997430801e-02 3.7193395197391510e-02 -1.6570759471505880e-03 -1.3711303472518921e-02 -1.1239080689847469e-02 2.8598941862583160e-02 -1.0914613492786884e-02 3.5280264914035797e-02 -2.2788088768720627e-02 -1.3011968694627285e-02 2.5628043338656425e-02 2.1474577486515045e-02 -2.0261317491531372e-02 1.9174577668309212e-02 -3.0347703024744987e-02 -4.1251610964536667e-03 1.3181622140109539e-02 6.8216891959309578e-03 -2.4226270616054535e-02 -2.2599967196583748e-02 -2.6703730225563049e-02 -4.9799564294517040e-03 -1.0787680745124817e-02 -1.7673145979642868e-02 -5.5588509887456894e-02 3.8591496646404266e-02 -7.7953622676432133e-03 -1.9496304914355278e-02 4.3171033263206482e-02 1.2351453304290771e-02 4.0219850838184357e-02 -2.1274863684084266e-04 2.5752851739525795e-02 3.7372894585132599e-02 8.1171095371246338e-03 4.6978499740362167e-02 -1.9131099805235863e-02 1.4138632453978062e-02 1.5530601143836975e-02 2.7688059955835342e-02 -1.9376024138182402e-03 3.1879011541604996e-02 -3.2542567700147629e-02 -4.2661674320697784e-02 -4.8911768943071365e-02 -4.0961544960737228e-02 -1.4017797075212002e-02 -2.3498831316828728e-02 -4.7900481149554253e-03 -1.2183148413896561e-02 -2.4277705699205399e-02 -1.7499763518571854e-02 -3.1020442023873329e-02 1.0956477373838425e-02 2.3552842438220978e-02 -1.4055654406547546e-02 -5.5474538356065750e-02 -2.4628687649965286e-02 3.1203763559460640e-02 -6.3561545684933662e-03 2.4731727316975594e-02 -2.5069317780435085e-03 2.9120169579982758e-02 -2.0195487886667252e-02 7.1291165659204125e-04 -2.3803040385246277e-02 3.2737806439399719e-02 -3.2691389322280884e-02 -3.0743366107344627e-02 -3.4164737910032272e-02 2.2535901516675949e-02 4.6901915222406387e-02 -1.5348022803664207e-02 2.4150677025318146e-02 2.5168955326080322e-02 2.3820888251066208e-02 -2.4220066145062447e-02 -5.2898768335580826e-02 5.0401397049427032e-02 9.7958762198686600e-03 4.7637253999710083e-02 -2.5567680597305298e-02 2.2704259026795626e-04 1.7062705010175705e-02 -2.1178094670176506e-02 -2.7945855632424355e-02 7.5555383227765560e-03 2.9585054144263268e-02 4.4403921812772751e-02 -2.3204337805509567e-02 -1.3192999176681042e-03 -1.2058073654770851e-02 -1.2785837985575199e-02 1.2119730003178120e-02 -2.0155576989054680e-02 -3.3807586878538132e-02 1.6929611563682556e-02 -3.8511022925376892e-02 4.3245576322078705e-02 2.6275796815752983e-02 1.1746720410883427e-02 -6.9196326658129692e-03 -5.2699785679578781e-02 1.0335705010220408e-03 -2.5594091042876244e-02 4.6427898108959198e-02 1.6854349523782730e-03 -1.5723025426268578e-02 -7.0822715759277344e-02 4.5056514441967010e-02 6.9998777471482754e-03 -3.9304405450820923e-02 -8.5270088165998459e-03 4.6082907356321812e-03 3.6903377622365952e-02 -2.0926076918840408e-02 -1.7646297812461853e-02 1.5305927023291588e-02 -8.3348609041422606e-04 -2.8543153777718544e-02 2.4431528523564339e-02 6.3142087310552597e-04 4.0131371468305588e-02 -3.2744765281677246e-02 6.7418594844639301e-03 -3.0632110312581062e-02 -1.2557744979858398e-02 -8.6769592016935349e-03 3.3928584307432175e-02 2.1105766296386719e-02 -5.2300794050097466e-03 -6.4915779512375593e-04 3.9846651256084442e-02 -3.9199046790599823e-02 1.0711667127907276e-02 -3.7158112972974777e-02 1.0876972228288651e-02 4.1719660162925720e-02 -4.7262147068977356e-02 1.1544317007064819e-02 3.1972043216228485e-02 -3.1380221247673035e-02 2.6282045990228653e-02 4.6764969825744629e-02 2.4424120783805847e-02 -3.3380664885044098e-02 1.8456263467669487e-02 1.6803003847599030e-02 3.2032873481512070e-02 2.2237099707126617e-02 -3.9103835821151733e-02 4.1545007377862930e-02 1.8196569755673409e-02 6.4170598052442074e-03 2.0756550133228302e-02 -3.7246007472276688e-02 1.6614515334367752e-02 -7.8350398689508438e-03 -3.2362435013055801e-03 -4.3384596705436707e-02 2.0193163305521011e-02 -3.0005119740962982e-02 9.5231272280216217e-03 -8.8286958634853363e-03 -2.7759982272982597e-02 2.3437652736902237e-02 -2.0154969766736031e-02 -4.2234912514686584e-02 -5.7230424135923386e-04 -3.0019333586096764e-02 1.9402166828513145e-02 -4.0876064449548721e-02 3.3366259187459946e-02 -2.8487574309110641e-02 -5.1860656589269638e-02 2.3555345833301544e-02 -1.2329201854299754e-04 3.7197738885879517e-02 -4.2417470365762711e-02 1.0153823532164097e-02 1.1901281774044037e-02 -1.8033606931567192e-02 8.8135963305830956e-03 -1.6389545053243637e-03 1.6108654672279954e-03 -2.4222034960985184e-02 -2.4935445981100202e-04 3.3391624689102173e-02 -2.1546442061662674e-02 2.9674520716071129e-02 3.8616653531789780e-02 -2.8637200593948364e-02 9.2408033087849617e-03 7.9791608732193708e-04 -2.6081969961524010e-02 -1.4218268916010857e-02 -1.1811370495706797e-03 